<?xml version="1.0"?>
<opencv_storage>
<cascade>
  <stageType>BOOST</stageType>
  <featureType>HAAR</featureType>
  <height>24</height>
  <width>24</width>
  <stageParams>
    <boostType>GAB</boostType>
    <minHitRate>9.9500000476837158e-01</minHitRate>
    <maxFalseAlarm>5.0000000000000000e-01</maxFalseAlarm>
    <weightTrimRate>9.4999998807907104e-01</weightTrimRate>
    <maxDepth>1</maxDepth>
    <maxWeakCount>100</maxWeakCount></stageParams>
  <featureParams>
    <maxCatCount>0</maxCatCount>
    <featSize>1</featSize>
    <mode>BASIC</mode></featureParams>
  <stageNum>10</stageNum>
  <stages>
    <!-- stage 0 -->
    <_>
      <maxWeakCount>19</maxWeakCount>
      <stageThreshold>-1.8200371265411377e+00</stageThreshold>
      <weakClassifiers>
        <_>
          <internalNodes>
            0 -1 468 1.2804567813873291e-02</internalNodes>
          <leafValues>
            -7.5361192226409912e-01 5.3539711982011795e-02</leafValues></_>
        <_>
          <internalNodes>
            0 -1 247 -1.7744639888405800e-02</internalNodes>
          <leafValues>
            2.3956854641437531e-01 -5.6087481975555420e-01</leafValues></_>
        <_>
          <internalNodes>
            0 -1 44 -1.7074661329388618e-02</internalNodes>
          <leafValues>
            5.2865171432495117e-01 -2.5207963585853577e-01</leafValues></_>
        <_>
          <internalNodes>
            0 -1 28 -2.2854847833514214e-02</internalNodes>
          <leafValues>
            4.7618895769119263e-01 -1.7940108478069305e-01</leafValues></_>
        <_>
          <internalNodes>
            0 -1 285 -2.7693623676896095e-02</internalNodes>
          <leafValues>
            3.7144827842712402e-01 -2.0935375988483429e-01</leafValues></_>
        <_>
          <internalNodes>
            0 -1 173 -3.0003299470990896e-03</internalNodes>
          <leafValues>
            3.8378551602363586e-01 -1.8283109366893768e-01</leafValues></_>
        <_>
          <internalNodes>
            0 -1 456 -1.6060370951890945e-02</internalNodes>
          <leafValues>
            5.4456663131713867e-01 -9.1537512838840485e-02</leafValues></_>
        <_>
          <internalNodes>
            0 -1 172 -6.9911479949951172e-03</internalNodes>
          <leafValues>
            5.2022576332092285e-01 -1.3944220542907715e-01</leafValues></_>
        <_>
          <internalNodes>
            0 -1 153 -1.6577232629060745e-02</internalNodes>
          <leafValues>
            3.9473548531532288e-01 -1.5633730590343475e-01</leafValues></_>
        <_>
          <internalNodes>
            0 -1 148 -1.0336291044950485e-02</internalNodes>
          <leafValues>
            5.4263031482696533e-01 -9.5697671175003052e-02</leafValues></_>
        <_>
          <internalNodes>
            0 -1 165 -5.2292487816885114e-04</internalNodes>
          <leafValues>
            -6.1076569557189941e-01 1.0063287615776062e-01</leafValues></_>
        <_>
          <internalNodes>
            0 -1 164 7.2096602525562048e-04</internalNodes>
          <leafValues>
            8.9598499238491058e-02 -6.1490005254745483e-01</leafValues></_>
        <_>
          <internalNodes>
            0 -1 410 -8.5097867995500565e-03</internalNodes>
          <leafValues>
            3.6408451199531555e-01 -1.9673806428909302e-01</leafValues></_>
        <_>
          <internalNodes>
            0 -1 2 1.4639531262218952e-02</internalNodes>
          <leafValues>
            -1.5529897809028625e-01 3.6643823981285095e-01</leafValues></_>
        <_>
          <internalNodes>
            0 -1 27 -1.1946400627493858e-02</internalNodes>
          <leafValues>
            3.3690792322158813e-01 -1.7489615082740784e-01</leafValues></_>
        <_>
          <internalNodes>
            0 -1 204 -4.6138837933540344e-02</internalNodes>
          <leafValues>
            3.1312125921249390e-01 -1.6550555825233459e-01</leafValues></_>
        <_>
          <internalNodes>
            0 -1 178 -1.6665587201714516e-02</internalNodes>
          <leafValues>
            3.1840807199478149e-01 -1.7095173895359039e-01</leafValues></_>
        <_>
          <internalNodes>
            0 -1 421 -3.2931200694292784e-03</internalNodes>
          <leafValues>
            -5.7254016399383545e-01 8.5403837263584137e-02</leafValues></_>
        <_>
          <internalNodes>
            0 -1 429 4.4300705194473267e-03</internalNodes>
          <leafValues>
            -1.4501257240772247e-01 3.4845256805419922e-01</leafValues></_></weakClassifiers></_>
    <!-- stage 1 -->
    <_>
      <maxWeakCount>25</maxWeakCount>
      <stageThreshold>-1.8273475170135498e+00</stageThreshold>
      <weakClassifiers>
        <_>
          <internalNodes>
            0 -1 467 2.1661080420017242e-02</internalNodes>
          <leafValues>
            -6.8441784381866455e-01 6.6999286413192749e-02</leafValues></_>
        <_>
          <internalNodes>
            0 -1 64 -5.5072717368602753e-03</internalNodes>
          <leafValues>
            2.6900142431259155e-01 -4.0118670463562012e-01</leafValues></_>
        <_>
          <internalNodes>
            0 -1 29 -1.9488910213112831e-02</internalNodes>
          <leafValues>
            3.1579968333244324e-01 -2.6352256536483765e-01</leafValues></_>
        <_>
          <internalNodes>
            0 -1 192 -2.1722428500652313e-02</internalNodes>
          <leafValues>
            4.2138209939002991e-01 -1.6328899562358856e-01</leafValues></_>
        <_>
          <internalNodes>
            0 -1 298 -3.2550985924899578e-03</internalNodes>
          <leafValues>
            3.2079505920410156e-01 -1.7193759977817535e-01</leafValues></_>
        <_>
          <internalNodes>
            0 -1 473 5.4253527196124196e-04</internalNodes>
          <leafValues>
            9.0018831193447113e-02 -5.8920973539352417e-01</leafValues></_>
        <_>
          <internalNodes>
            0 -1 152 6.1405105516314507e-03</internalNodes>
          <leafValues>
            -1.3362194597721100e-01 3.8122099637985229e-01</leafValues></_>
        <_>
          <internalNodes>
            0 -1 492 -2.9776976443827152e-03</internalNodes>
          <leafValues>
            3.7304884195327759e-01 -1.3820125162601471e-01</leafValues></_>
        <_>
          <internalNodes>
            0 -1 484 9.1281451750546694e-04</internalNodes>
          <leafValues>
            1.0999908298254013e-01 -6.9347804784774780e-01</leafValues></_>
        <_>
          <internalNodes>
            0 -1 398 2.6130832731723785e-02</internalNodes>
          <leafValues>
            -1.9808106124401093e-01 2.8401559591293335e-01</leafValues></_>
        <_>
          <internalNodes>
            0 -1 293 -2.0163962617516518e-03</internalNodes>
          <leafValues>
            3.4770545363426208e-01 -1.2650099396705627e-01</leafValues></_>
        <_>
          <internalNodes>
            0 -1 490 1.0951471049338579e-03</internalNodes>
          <leafValues>
            -1.6118036210536957e-01 3.0682477355003357e-01</leafValues></_>
        <_>
          <internalNodes>
            0 -1 448 -1.5559007879346609e-03</internalNodes>
          <leafValues>
            -5.9426635503768921e-01 9.1258756816387177e-02</leafValues></_>
        <_>
          <internalNodes>
            0 -1 267 -3.8315451238304377e-03</internalNodes>
          <leafValues>
            3.0800920724868774e-01 -1.5616390109062195e-01</leafValues></_>
        <_>
          <internalNodes>
            0 -1 236 -2.2207617759704590e-02</internalNodes>
          <leafValues>
            3.4329146146774292e-01 -1.1433947831392288e-01</leafValues></_>
        <_>
          <internalNodes>
            0 -1 11 1.8992032855749130e-02</internalNodes>
          <leafValues>
            -1.0895624756813049e-01 3.7671241164207458e-01</leafValues></_>
        <_>
          <internalNodes>
            0 -1 21 -1.2231083586812019e-02</internalNodes>
          <leafValues>
            3.7210515141487122e-01 -1.3345010578632355e-01</leafValues></_>
        <_>
          <internalNodes>
            0 -1 196 -1.7037726938724518e-02</internalNodes>
          <leafValues>
            3.1692257523536682e-01 -1.3408325612545013e-01</leafValues></_>
        <_>
          <internalNodes>
            0 -1 249 -2.0694006234407425e-03</internalNodes>
          <leafValues>
            2.3544859886169434e-01 -1.9884003698825836e-01</leafValues></_>
        <_>
          <internalNodes>
            0 -1 266 -3.5122125409543514e-03</internalNodes>
          <leafValues>
            3.3978301286697388e-01 -1.6668173670768738e-01</leafValues></_>
        <_>
          <internalNodes>
            0 -1 162 -2.6676159352064133e-02</internalNodes>
          <leafValues>
            3.3600682020187378e-01 -1.2724752724170685e-01</leafValues></_>
        <_>
          <internalNodes>
            0 -1 546 1.5126974321901798e-03</internalNodes>
          <leafValues>
            9.0740911662578583e-02 -4.5601955056190491e-01</leafValues></_>
        <_>
          <internalNodes>
            0 -1 235 -8.5287075489759445e-04</internalNodes>
          <leafValues>
            -6.5472775697708130e-01 5.4196733981370926e-02</leafValues></_>
        <_>
          <internalNodes>
            0 -1 354 -6.8529751151800156e-03</internalNodes>
          <leafValues>
            2.5810787081718445e-01 -1.5553398430347443e-01</leafValues></_>
        <_>
          <internalNodes>
            0 -1 489 -6.6978979157283902e-04</internalNodes>
          <leafValues>
            2.8183141350746155e-01 -1.5524536371231079e-01</leafValues></_></weakClassifiers></_>
    <!-- stage 2 -->
    <_>
      <maxWeakCount>37</maxWeakCount>
      <stageThreshold>-1.8435609340667725e+00</stageThreshold>
      <weakClassifiers>
        <_>
          <internalNodes>
            0 -1 202 -7.5771227478981018e-02</internalNodes>
          <leafValues>
            -2.3053665459156036e-01 -7.1316611766815186e-01</leafValues></_>
        <_>
          <internalNodes>
            0 -1 413 -9.2286318540573120e-03</internalNodes>
          <leafValues>
            2.6541781425476074e-01 -3.5130327939987183e-01</leafValues></_>
        <_>
          <internalNodes>
            0 -1 49 -6.3409279100596905e-03</internalNodes>
          <leafValues>
            3.5321336984634399e-01 -2.0833055675029755e-01</leafValues></_>
        <_>
          <internalNodes>
            0 -1 143 -3.5151913762092590e-02</internalNodes>
          <leafValues>
            3.3124813437461853e-01 -1.6015434265136719e-01</leafValues></_>
        <_>
          <internalNodes>
            0 -1 274 -1.5849169343709946e-02</internalNodes>
          <leafValues>
            3.4478244185447693e-01 -1.2624959647655487e-01</leafValues></_>
        <_>
          <internalNodes>
            0 -1 62 -5.1956679672002792e-03</internalNodes>
          <leafValues>
            -4.9957162141799927e-01 9.6445657312870026e-02</leafValues></_>
        <_>
          <internalNodes>
            0 -1 324 3.3039197325706482e-02</internalNodes>
          <leafValues>
            -1.5097676217556000e-01 2.6924276351928711e-01</leafValues></_>
        <_>
          <internalNodes>
            0 -1 94 1.5174852684140205e-02</internalNodes>
          <leafValues>
            9.1278150677680969e-02 -5.1975625753402710e-01</leafValues></_>
        <_>
          <internalNodes>
            0 -1 239 -1.5442769974470139e-02</internalNodes>
          <leafValues>
            3.3119687438011169e-01 -1.4191628992557526e-01</leafValues></_>
        <_>
          <internalNodes>
            0 -1 18 -2.5997871160507202e-01</internalNodes>
          <leafValues>
            -6.3708609342575073e-01 8.8563658297061920e-02</leafValues></_>
        <_>
          <internalNodes>
            0 -1 347 -9.6181221306324005e-03</internalNodes>
          <leafValues>
            3.2216662168502808e-01 -1.4838518202304840e-01</leafValues></_>
        <_>
          <internalNodes>
            0 -1 115 -6.8002426996827126e-04</internalNodes>
          <leafValues>
            -5.8713924884796143e-01 8.1263855099678040e-02</leafValues></_>
        <_>
          <internalNodes>
            0 -1 186 3.0060399323701859e-02</internalNodes>
          <leafValues>
            -1.5742357075214386e-01 2.6732090115547180e-01</leafValues></_>
        <_>
          <internalNodes>
            0 -1 220 -5.2733067423105240e-03</internalNodes>
          <leafValues>
            3.3528688549995422e-01 -1.1461552977561951e-01</leafValues></_>
        <_>
          <internalNodes>
            0 -1 194 -4.0465295314788818e-03</internalNodes>
          <leafValues>
            3.2840088009834290e-01 -1.4265573024749756e-01</leafValues></_>
        <_>
          <internalNodes>
            0 -1 528 -1.0624551578075625e-05</internalNodes>
          <leafValues>
            2.0616801083087921e-01 -1.6891956329345703e-01</leafValues></_>
        <_>
          <internalNodes>
            0 -1 541 -5.3248684853315353e-03</internalNodes>
          <leafValues>
            -4.6284899115562439e-01 8.3114437758922577e-02</leafValues></_>
        <_>
          <internalNodes>
            0 -1 226 -2.3488583043217659e-02</internalNodes>
          <leafValues>
            2.4290400743484497e-01 -1.6358208656311035e-01</leafValues></_>
        <_>
          <internalNodes>
            0 -1 52 -1.3690814375877380e-02</internalNodes>
          <leafValues>
            2.9062166810035706e-01 -1.6076233983039856e-01</leafValues></_>
        <_>
          <internalNodes>
            0 -1 15 1.7745614051818848e-02</internalNodes>
          <leafValues>
            -9.3140937387943268e-02 4.0086618065834045e-01</leafValues></_>
        <_>
          <internalNodes>
            0 -1 494 9.7617693245410919e-03</internalNodes>
          <leafValues>
            -1.2995958328247070e-01 3.0560427904129028e-01</leafValues></_>
        <_>
          <internalNodes>
            0 -1 115 5.7433504844084382e-04</internalNodes>
          <leafValues>
            7.6110593974590302e-02 -5.3332769870758057e-01</leafValues></_>
        <_>
          <internalNodes>
            0 -1 345 -2.5112051516771317e-03</internalNodes>
          <leafValues>
            1.9027303159236908e-01 -1.8834576010704041e-01</leafValues></_>
        <_>
          <internalNodes>
            0 -1 454 7.8932093456387520e-03</internalNodes>
          <leafValues>
            -1.2079665809869766e-01 3.0580824613571167e-01</leafValues></_>
        <_>
          <internalNodes>
            0 -1 126 -2.9160629957914352e-02</internalNodes>
          <leafValues>
            2.9624360799789429e-01 -1.0821579396724701e-01</leafValues></_>
        <_>
          <internalNodes>
            0 -1 12 2.5575624778866768e-02</internalNodes>
          <leafValues>
            -1.2896567583084106e-01 3.1033977866172791e-01</leafValues></_>
        <_>
          <internalNodes>
            0 -1 295 -2.5673699565231800e-03</internalNodes>
          <leafValues>
            2.7137631177902222e-01 -1.2706680595874786e-01</leafValues></_>
        <_>
          <internalNodes>
            0 -1 503 9.7674899734556675e-04</internalNodes>
          <leafValues>
            5.2795674651861191e-02 -6.2235546112060547e-01</leafValues></_>
        <_>
          <internalNodes>
            0 -1 455 -1.1053146794438362e-02</internalNodes>
          <leafValues>
            2.4827001988887787e-01 -1.2474497407674789e-01</leafValues></_>
        <_>
          <internalNodes>
            0 -1 503 -4.9189262790605426e-04</internalNodes>
          <leafValues>
            -5.0941723585128784e-01 6.8453967571258545e-02</leafValues></_>
        <_>
          <internalNodes>
            0 -1 434 -4.9048685468733311e-03</internalNodes>
          <leafValues>
            1.9081147015094757e-01 -1.6174933314323425e-01</leafValues></_>
        <_>
          <internalNodes>
            0 -1 203 -6.5053001046180725e-02</internalNodes>
          <leafValues>
            3.9296656847000122e-01 -8.8544242084026337e-02</leafValues></_>
        <_>
          <internalNodes>
            0 -1 451 3.8219208363443613e-05</internalNodes>
          <leafValues>
            1.4791439473628998e-01 -2.1254138648509979e-01</leafValues></_>
        <_>
          <internalNodes>
            0 -1 199 -5.7138660922646523e-03</internalNodes>
          <leafValues>
            2.4250407516956329e-01 -1.2671574950218201e-01</leafValues></_>
        <_>
          <internalNodes>
            0 -1 33 -8.0509390681982040e-03</internalNodes>
          <leafValues>
            2.4131448566913605e-01 -1.3371613621711731e-01</leafValues></_>
        <_>
          <internalNodes>
            0 -1 537 -6.1682909727096558e-03</internalNodes>
          <leafValues>
            -4.5095190405845642e-01 6.7190103232860565e-02</leafValues></_>
        <_>
          <internalNodes>
            0 -1 224 -4.7765849158167839e-03</internalNodes>
          <leafValues>
            2.4202293157577515e-01 -1.2163234502077103e-01</leafValues></_></weakClassifiers></_>
    <!-- stage 3 -->
    <_>
      <maxWeakCount>41</maxWeakCount>
      <stageThreshold>-1.8343794345855713e+00</stageThreshold>
      <weakClassifiers>
        <_>
          <internalNodes>
            0 -1 432 9.7734732553362846e-03</internalNodes>
          <leafValues>
            -7.2192633152008057e-01 -3.0733662843704224e-01</leafValues></_>
        <_>
          <internalNodes>
            0 -1 14 -1.6080403700470924e-02</internalNodes>
          <leafValues>
            2.7055269479751587e-01 -2.8656044602394104e-01</leafValues></_>
        <_>
          <internalNodes>
            0 -1 284 -2.9620982706546783e-02</internalNodes>
          <leafValues>
            3.2213094830513000e-01 -1.7276141047477722e-01</leafValues></_>
        <_>
          <internalNodes>
            0 -1 261 -5.1870413124561310e-02</internalNodes>
          <leafValues>
            2.3995357751846313e-01 -2.4025203287601471e-01</leafValues></_>
        <_>
          <internalNodes>
            0 -1 330 -1.4567188918590546e-02</internalNodes>
          <leafValues>
            2.5974884629249573e-01 -2.0212745666503906e-01</leafValues></_>
        <_>
          <internalNodes>
            0 -1 41 7.4163558892905712e-03</internalNodes>
          <leafValues>
            -9.9985480308532715e-02 3.7571927905082703e-01</leafValues></_>
        <_>
          <internalNodes>
            0 -1 85 -4.9613136798143387e-04</internalNodes>
          <leafValues>
            -4.1580554842948914e-01 1.1772540211677551e-01</leafValues></_>
        <_>
          <internalNodes>
            0 -1 89 6.1703915707767010e-04</internalNodes>
          <leafValues>
            7.5659729540348053e-02 -5.2381742000579834e-01</leafValues></_>
        <_>
          <internalNodes>
            0 -1 59 -1.8302245065569878e-02</internalNodes>
          <leafValues>
            4.8424690961837769e-01 -8.4851734340190887e-02</leafValues></_>
        <_>
          <internalNodes>
            0 -1 486 1.0996740311384201e-02</internalNodes>
          <leafValues>
            -1.0576494783163071e-01 3.6673620343208313e-01</leafValues></_>
        <_>
          <internalNodes>
            0 -1 452 -6.3734827563166618e-03</internalNodes>
          <leafValues>
            3.0599179863929749e-01 -1.1746033281087875e-01</leafValues></_>
        <_>
          <internalNodes>
            0 -1 75 1.1603741440922022e-03</internalNodes>
          <leafValues>
            6.9032512605190277e-02 -4.7688561677932739e-01</leafValues></_>
        <_>
          <internalNodes>
            0 -1 405 -4.9603992374613881e-04</internalNodes>
          <leafValues>
            -5.1147937774658203e-01 6.4622215926647186e-02</leafValues></_>
        <_>
          <internalNodes>
            0 -1 405 4.0275286301039159e-04</internalNodes>
          <leafValues>
            8.0978915095329285e-02 -5.3015714883804321e-01</leafValues></_>
        <_>
          <internalNodes>
            0 -1 51 -1.5986101701855659e-02</internalNodes>
          <leafValues>
            2.2996699810028076e-01 -1.5219041705131531e-01</leafValues></_>
        <_>
          <internalNodes>
            0 -1 359 1.0244850069284439e-02</internalNodes>
          <leafValues>
            -1.0240795463323593e-01 3.2899954915046692e-01</leafValues></_>
        <_>
          <internalNodes>
            0 -1 407 -6.4172133803367615e-02</internalNodes>
          <leafValues>
            4.1043126583099365e-01 -8.5011124610900879e-02</leafValues></_>
        <_>
          <internalNodes>
            0 -1 357 -5.0270585343241692e-03</internalNodes>
          <leafValues>
            3.3777207136154175e-01 -9.6398100256919861e-02</leafValues></_>
        <_>
          <internalNodes>
            0 -1 75 -1.6624655108898878e-03</internalNodes>
          <leafValues>
            -5.2560842037200928e-01 6.4094513654708862e-02</leafValues></_>
        <_>
          <internalNodes>
            0 -1 269 -3.6017098464071751e-03</internalNodes>
          <leafValues>
            2.7901151776313782e-01 -1.1378645151853561e-01</leafValues></_>
        <_>
          <internalNodes>
            0 -1 140 -2.6538753882050514e-03</internalNodes>
          <leafValues>
            -5.5709087848663330e-01 5.6434173136949539e-02</leafValues></_>
        <_>
          <internalNodes>
            0 -1 122 1.3648275285959244e-02</internalNodes>
          <leafValues>
            -9.6345633268356323e-02 3.3133673667907715e-01</leafValues></_>
        <_>
          <internalNodes>
            0 -1 540 -1.0707636829465628e-03</internalNodes>
          <leafValues>
            -5.2077972888946533e-01 5.6857950985431671e-02</leafValues></_>
        <_>
          <internalNodes>
            0 -1 323 -2.7190484106540680e-03</internalNodes>
          <leafValues>
            2.2146831452846527e-01 -1.3433815538883209e-01</leafValues></_>
        <_>
          <internalNodes>
            0 -1 292 -3.5562042612582445e-03</internalNodes>
          <leafValues>
            2.6692670583724976e-01 -1.2063093483448029e-01</leafValues></_>
        <_>
          <internalNodes>
            0 -1 415 -7.4235349893569946e-04</internalNodes>
          <leafValues>
            1.6912788152694702e-01 -1.6660882532596588e-01</leafValues></_>
        <_>
          <internalNodes>
            0 -1 461 -2.8825234621763229e-03</internalNodes>
          <leafValues>
            2.8945702314376831e-01 -1.0780335962772369e-01</leafValues></_>
        <_>
          <internalNodes>
            0 -1 538 -2.4429040495306253e-03</internalNodes>
          <leafValues>
            -6.3479101657867432e-01 5.0500471144914627e-02</leafValues></_>
        <_>
          <internalNodes>
            0 -1 548 1.3794598635286093e-03</internalNodes>
          <leafValues>
            4.5664329081773758e-02 -5.2225774526596069e-01</leafValues></_>
        <_>
          <internalNodes>
            0 -1 465 -1.5385021688416600e-03</internalNodes>
          <leafValues>
            2.5605204701423645e-01 -1.1200795322656631e-01</leafValues></_>
        <_>
          <internalNodes>
            0 -1 397 -6.2355666887015104e-04</internalNodes>
          <leafValues>
            2.1964362263679504e-01 -1.2912178039550781e-01</leafValues></_>
        <_>
          <internalNodes>
            0 -1 312 -1.7021536827087402e-02</internalNodes>
          <leafValues>
            2.6106864213943481e-01 -1.0272565484046936e-01</leafValues></_>
        <_>
          <internalNodes>
            0 -1 400 -2.5286700576543808e-02</internalNodes>
          <leafValues>
            3.1980440020561218e-01 -9.9268712103366852e-02</leafValues></_>
        <_>
          <internalNodes>
            0 -1 388 -1.1855759657919407e-02</internalNodes>
          <leafValues>
            3.0494230985641479e-01 -1.0325296223163605e-01</leafValues></_>
        <_>
          <internalNodes>
            0 -1 474 -2.5166864506900311e-03</internalNodes>
          <leafValues>
            -5.8424448966979980e-01 5.3696636110544205e-02</leafValues></_>
        <_>
          <internalNodes>
            0 -1 13 1.2190815141366329e-05</internalNodes>
          <leafValues>
            -1.5755048394203186e-01 1.7466050386428833e-01</leafValues></_>
        <_>
          <internalNodes>
            0 -1 443 -5.4134679958224297e-03</internalNodes>
          <leafValues>
            1.8227273225784302e-01 -1.4056837558746338e-01</leafValues></_>
        <_>
          <internalNodes>
            0 -1 387 7.5160572305321693e-03</internalNodes>
          <leafValues>
            -1.0695151984691620e-01 2.6012921333312988e-01</leafValues></_>
        <_>
          <internalNodes>
            0 -1 210 -3.7042051553726196e-04</internalNodes>
          <leafValues>
            -3.9334252476692200e-01 6.7067928612232208e-02</leafValues></_>
        <_>
          <internalNodes>
            0 -1 213 -6.3026715070009232e-03</internalNodes>
          <leafValues>
            1.8483231961727142e-01 -1.3363583385944366e-01</leafValues></_>
        <_>
          <internalNodes>
            0 -1 244 -3.0873077921569347e-03</internalNodes>
          <leafValues>
            2.3203392326831818e-01 -1.2247429043054581e-01</leafValues></_></weakClassifiers></_>
    <!-- stage 4 -->
    <_>
      <maxWeakCount>53</maxWeakCount>
      <stageThreshold>-1.8335294723510742e+00</stageThreshold>
      <weakClassifiers>
        <_>
          <internalNodes>
            0 -1 45 -2.5081578642129898e-02</internalNodes>
          <leafValues>
            -2.0031298696994781e-01 -6.6278070211410522e-01</leafValues></_>
        <_>
          <internalNodes>
            0 -1 112 1.2150431051850319e-02</internalNodes>
          <leafValues>
            -3.7426769733428955e-01 1.2997272610664368e-01</leafValues></_>
        <_>
          <internalNodes>
            0 -1 412 -1.0912274941802025e-02</internalNodes>
          <leafValues>
            2.3664112389087677e-01 -1.7455407977104187e-01</leafValues></_>
        <_>
          <internalNodes>
            0 -1 150 1.4738894533365965e-03</internalNodes>
          <leafValues>
            -1.3137242197990417e-01 2.7750000357627869e-01</leafValues></_>
        <_>
          <internalNodes>
            0 -1 129 9.2103908536955714e-04</internalNodes>
          <leafValues>
            -1.1827753484249115e-01 2.9126584529876709e-01</leafValues></_>
        <_>
          <internalNodes>
            0 -1 317 2.2057122550904751e-03</internalNodes>
          <leafValues>
            1.0753700882196426e-01 -5.6281954050064087e-01</leafValues></_>
        <_>
          <internalNodes>
            0 -1 533 -6.7244851961731911e-03</internalNodes>
          <leafValues>
            -4.2213672399520874e-01 4.1337475180625916e-02</leafValues></_>
        <_>
          <internalNodes>
            0 -1 190 -2.3532468825578690e-02</internalNodes>
          <leafValues>
            2.8348660469055176e-01 -1.0337141156196594e-01</leafValues></_>
        <_>
          <internalNodes>
            0 -1 168 -7.5947148725390434e-03</internalNodes>
          <leafValues>
            3.4429419040679932e-01 -7.5286895036697388e-02</leafValues></_>
        <_>
          <internalNodes>
            0 -1 460 2.9870061203837395e-02</internalNodes>
          <leafValues>
            -7.4072562158107758e-02 3.9407214522361755e-01</leafValues></_>
        <_>
          <internalNodes>
            0 -1 365 2.8668304439634085e-03</internalNodes>
          <leafValues>
            6.6595330834388733e-02 -4.7333469986915588e-01</leafValues></_>
        <_>
          <internalNodes>
            0 -1 88 1.1431617167545483e-05</internalNodes>
          <leafValues>
            -1.5401837229728699e-01 1.8098777532577515e-01</leafValues></_>
        <_>
          <internalNodes>
            0 -1 73 -7.5000985525548458e-03</internalNodes>
          <leafValues>
            1.6472373902797699e-01 -1.8583042919635773e-01</leafValues></_>
        <_>
          <internalNodes>
            0 -1 94 -1.4392171986401081e-02</internalNodes>
          <leafValues>
            -4.4781282544136047e-01 7.1061201393604279e-02</leafValues></_>
        <_>
          <internalNodes>
            0 -1 68 -3.6740163341164589e-03</internalNodes>
          <leafValues>
            -3.4679433703422546e-01 8.4282852709293365e-02</leafValues></_>
        <_>
          <internalNodes>
            0 -1 231 -4.1316417045891285e-03</internalNodes>
          <leafValues>
            4.3729704618453979e-01 -7.3213584721088409e-02</leafValues></_>
        <_>
          <internalNodes>
            0 -1 530 1.6543976962566376e-02</internalNodes>
          <leafValues>
            7.4880287051200867e-02 -4.1228693723678589e-01</leafValues></_>
        <_>
          <internalNodes>
            0 -1 107 -5.4190065711736679e-03</internalNodes>
          <leafValues>
            1.8977394700050354e-01 -1.5352712571620941e-01</leafValues></_>
        <_>
          <internalNodes>
            0 -1 139 -7.3565565980970860e-04</internalNodes>
          <leafValues>
            -5.4808109998703003e-01 5.2555188536643982e-02</leafValues></_>
        <_>
          <internalNodes>
            0 -1 380 -1.3830931857228279e-03</internalNodes>
          <leafValues>
            1.8497805297374725e-01 -1.5949919819831848e-01</leafValues></_>
        <_>
          <internalNodes>
            0 -1 154 -8.0380346626043320e-03</internalNodes>
          <leafValues>
            2.3824177682399750e-01 -1.1929918825626373e-01</leafValues></_>
        <_>
          <internalNodes>
            0 -1 288 -1.8231146968901157e-03</internalNodes>
          <leafValues>
            1.9624708592891693e-01 -1.3050496578216553e-01</leafValues></_>
        <_>
          <internalNodes>
            0 -1 368 -1.7559173284098506e-03</internalNodes>
          <leafValues>
            2.2616933286190033e-01 -1.1407368630170822e-01</leafValues></_>
        <_>
          <internalNodes>
            0 -1 511 -2.6143528521060944e-03</internalNodes>
          <leafValues>
            -5.9470802545547485e-01 4.4344399124383926e-02</leafValues></_>
        <_>
          <internalNodes>
            0 -1 102 7.7973045408725739e-03</internalNodes>
          <leafValues>
            -9.5200315117835999e-02 2.8735890984535217e-01</leafValues></_>
        <_>
          <internalNodes>
            0 -1 84 1.4011404709890485e-03</internalNodes>
          <leafValues>
            5.0906132906675339e-02 -5.0432574748992920e-01</leafValues></_>
        <_>
          <internalNodes>
            0 -1 373 -2.1985894069075584e-02</internalNodes>
          <leafValues>
            2.5468155741691589e-01 -1.0534882545471191e-01</leafValues></_>
        <_>
          <internalNodes>
            0 -1 19 7.6168663799762726e-03</internalNodes>
          <leafValues>
            -9.7800612449645996e-02 2.4985453486442566e-01</leafValues></_>
        <_>
          <internalNodes>
            0 -1 149 -4.0307203307747841e-03</internalNodes>
          <leafValues>
            2.2245568037033081e-01 -1.1864370107650757e-01</leafValues></_>
        <_>
          <internalNodes>
            0 -1 299 -3.3685132861137390e-02</internalNodes>
          <leafValues>
            2.0904362201690674e-01 -1.2246521562337875e-01</leafValues></_>
        <_>
          <internalNodes>
            0 -1 425 -3.2709497958421707e-02</internalNodes>
          <leafValues>
            3.3555930852890015e-01 -8.2824908196926117e-02</leafValues></_>
        <_>
          <internalNodes>
            0 -1 3 -3.9893857319839299e-05</internalNodes>
          <leafValues>
            -1.9395104050636292e-01 1.2769022583961487e-01</leafValues></_>
        <_>
          <internalNodes>
            0 -1 65 -1.1623860336840153e-02</internalNodes>
          <leafValues>
            1.9767218828201294e-01 -1.1858439445495605e-01</leafValues></_>
        <_>
          <internalNodes>
            0 -1 250 -4.6633952297270298e-04</internalNodes>
          <leafValues>
            1.9850228726863861e-01 -1.2018728256225586e-01</leafValues></_>
        <_>
          <internalNodes>
            0 -1 205 4.4508706778287888e-03</internalNodes>
          <leafValues>
            -1.0505502671003342e-01 3.1868818402290344e-01</leafValues></_>
        <_>
          <internalNodes>
            0 -1 97 -2.0187249779701233e-01</internalNodes>
          <leafValues>
            2.4016241729259491e-01 -1.0435272008180618e-01</leafValues></_>
        <_>
          <internalNodes>
            0 -1 309 1.2915731640532613e-03</internalNodes>
          <leafValues>
            -1.1317253112792969e-01 2.2010895609855652e-01</leafValues></_>
        <_>
          <internalNodes>
            0 -1 311 2.6191640645265579e-03</internalNodes>
          <leafValues>
            -9.8218888044357300e-02 2.3729334771633148e-01</leafValues></_>
        <_>
          <internalNodes>
            0 -1 327 -5.0149008166044950e-04</internalNodes>
          <leafValues>
            1.7054951190948486e-01 -1.3630786538124084e-01</leafValues></_>
        <_>
          <internalNodes>
            0 -1 301 -1.5003774315118790e-02</internalNodes>
          <leafValues>
            2.8631246089935303e-01 -8.3882264792919159e-02</leafValues></_>
        <_>
          <internalNodes>
            0 -1 325 -9.2275184579193592e-04</internalNodes>
          <leafValues>
            1.9629676640033722e-01 -1.2023836374282837e-01</leafValues></_>
        <_>
          <internalNodes>
            0 -1 139 5.3855741862207651e-04</internalNodes>
          <leafValues>
            5.4400473833084106e-02 -4.3365573883056641e-01</leafValues></_>
        <_>
          <internalNodes>
            0 -1 386 1.7120561096817255e-03</internalNodes>
          <leafValues>
            -1.1637802422046661e-01 2.2136223316192627e-01</leafValues></_>
        <_>
          <internalNodes>
            0 -1 197 -4.7172107733786106e-03</internalNodes>
          <leafValues>
            2.3257295787334442e-01 -9.2461846768856049e-02</leafValues></_>
        <_>
          <internalNodes>
            0 -1 516 -1.1196600098628551e-05</internalNodes>
          <leafValues>
            1.6415376961231232e-01 -1.3204556703567505e-01</leafValues></_>
        <_>
          <internalNodes>
            0 -1 60 -3.6446019075810909e-03</internalNodes>
          <leafValues>
            -5.1728975772857666e-01 4.1270516812801361e-02</leafValues></_>
        <_>
          <internalNodes>
            0 -1 25 -1.1957721784710884e-02</internalNodes>
          <leafValues>
            2.1388891339302063e-01 -9.9781319499015808e-02</leafValues></_>
        <_>
          <internalNodes>
            0 -1 104 1.3190245954319835e-03</internalNodes>
          <leafValues>
            -9.1744393110275269e-02 2.4321581423282623e-01</leafValues></_>
        <_>
          <internalNodes>
            0 -1 475 -4.3506929650902748e-03</internalNodes>
          <leafValues>
            -6.6706800460815430e-01 3.6456771194934845e-02</leafValues></_>
        <_>
          <internalNodes>
            0 -1 81 1.8749904120340943e-03</internalNodes>
          <leafValues>
            3.3498082309961319e-02 -5.3427308797836304e-01</leafValues></_>
        <_>
          <internalNodes>
            0 -1 100 8.1630442291498184e-03</internalNodes>
          <leafValues>
            -9.6756309270858765e-02 2.2782865166664124e-01</leafValues></_>
        <_>
          <internalNodes>
            0 -1 446 -3.7038670852780342e-03</internalNodes>
          <leafValues>
            2.4742512404918671e-01 -7.7639371156692505e-02</leafValues></_>
        <_>
          <internalNodes>
            0 -1 411 -1.4195020310580730e-02</internalNodes>
          <leafValues>
            1.6243219375610352e-01 -1.4918579161167145e-01</leafValues></_></weakClassifiers></_>
    <!-- stage 5 -->
    <_>
      <maxWeakCount>59</maxWeakCount>
      <stageThreshold>-1.7058179378509521e+00</stageThreshold>
      <weakClassifiers>
        <_>
          <internalNodes>
            0 -1 127 -1.7184132337570190e-01</internalNodes>
          <leafValues>
            -2.4567769467830658e-01 -6.7951917648315430e-01</leafValues></_>
        <_>
          <internalNodes>
            0 -1 161 -6.2490098178386688e-02</internalNodes>
          <leafValues>
            1.9608750939369202e-01 -2.5500363111495972e-01</leafValues></_>
        <_>
          <internalNodes>
            0 -1 166 1.7452606698498130e-03</internalNodes>
          <leafValues>
            7.6749719679355621e-02 -6.1176615953445435e-01</leafValues></_>
        <_>
          <internalNodes>
            0 -1 211 1.1489544995129108e-03</internalNodes>
          <leafValues>
            1.1956276744604111e-01 -5.6578528881072998e-01</leafValues></_>
        <_>
          <internalNodes>
            0 -1 142 -7.2780169546604156e-02</internalNodes>
          <leafValues>
            2.6022419333457947e-01 -1.7116589844226837e-01</leafValues></_>
        <_>
          <internalNodes>
            0 -1 437 6.6934013739228249e-04</internalNodes>
          <leafValues>
            7.9400256276130676e-02 -5.4861366748809814e-01</leafValues></_>
        <_>
          <internalNodes>
            0 -1 495 1.3331925496459007e-02</internalNodes>
          <leafValues>
            -1.0396555066108704e-01 3.2340863347053528e-01</leafValues></_>
        <_>
          <internalNodes>
            0 -1 436 -1.5833203215152025e-03</internalNodes>
          <leafValues>
            -6.0748863220214844e-01 5.2423369139432907e-02</leafValues></_>
        <_>
          <internalNodes>
            0 -1 86 3.0175308347679675e-04</internalNodes>
          <leafValues>
            -1.6483151912689209e-01 1.7320762574672699e-01</leafValues></_>
        <_>
          <internalNodes>
            0 -1 125 1.2766130268573761e-02</internalNodes>
          <leafValues>
            -8.3119310438632965e-02 3.2113832235336304e-01</leafValues></_>
        <_>
          <internalNodes>
            0 -1 260 -4.1470397263765335e-03</internalNodes>
          <leafValues>
            2.6734474301338196e-01 -1.0112932324409485e-01</leafValues></_>
        <_>
          <internalNodes>
            0 -1 541 5.0993738695979118e-03</internalNodes>
          <leafValues>
            6.3938885927200317e-02 -3.7275561690330505e-01</leafValues></_>
        <_>
          <internalNodes>
            0 -1 534 -9.5295216888189316e-03</internalNodes>
          <leafValues>
            -3.9390468597412109e-01 6.2153790146112442e-02</leafValues></_>
        <_>
          <internalNodes>
            0 -1 318 4.3379804119467735e-03</internalNodes>
          <leafValues>
            4.1547600179910660e-02 -4.8862469196319580e-01</leafValues></_>
        <_>
          <internalNodes>
            0 -1 360 -1.2769668363034725e-02</internalNodes>
          <leafValues>
            2.3374557495117188e-01 -9.8413147032260895e-02</leafValues></_>
        <_>
          <internalNodes>
            0 -1 208 1.5330517664551735e-02</internalNodes>
          <leafValues>
            -9.8902150988578796e-02 2.9035475850105286e-01</leafValues></_>
        <_>
          <internalNodes>
            0 -1 174 -2.3767122998833656e-02</internalNodes>
          <leafValues>
            1.4094710350036621e-01 -1.7585025727748871e-01</leafValues></_>
        <_>
          <internalNodes>
            0 -1 37 -9.0823937207460403e-03</internalNodes>
          <leafValues>
            -4.0953862667083740e-01 6.1901077628135681e-02</leafValues></_>
        <_>
          <internalNodes>
            0 -1 48 -7.7946558594703674e-03</internalNodes>
          <leafValues>
            2.4949581921100616e-01 -9.1093219816684723e-02</leafValues></_>
        <_>
          <internalNodes>
            0 -1 113 7.3399185203015804e-04</internalNodes>
          <leafValues>
            3.7137288600206375e-02 -5.9190255403518677e-01</leafValues></_>
        <_>
          <internalNodes>
            0 -1 222 -6.8551325239241123e-04</internalNodes>
          <leafValues>
            1.7013783752918243e-01 -1.2228216230869293e-01</leafValues></_>
        <_>
          <internalNodes>
            0 -1 215 -3.0005190521478653e-02</internalNodes>
          <leafValues>
            2.9743230342864990e-01 -8.3642534911632538e-02</leafValues></_>
        <_>
          <internalNodes>
            0 -1 453 1.8187740817666054e-02</internalNodes>
          <leafValues>
            -1.2584999203681946e-01 1.6960868239402771e-01</leafValues></_>
        <_>
          <internalNodes>
            0 -1 195 -9.9646737799048424e-03</internalNodes>
          <leafValues>
            2.9642316699028015e-01 -7.2465024888515472e-02</leafValues></_>
        <_>
          <internalNodes>
            0 -1 363 -5.3762621246278286e-04</internalNodes>
          <leafValues>
            -4.7942721843719482e-01 4.5194871723651886e-02</leafValues></_>
        <_>
          <internalNodes>
            0 -1 43 9.9489353597164154e-03</internalNodes>
          <leafValues>
            -7.6010547578334808e-02 2.7522251009941101e-01</leafValues></_>
        <_>
          <internalNodes>
            0 -1 332 -4.9650919390842319e-04</internalNodes>
          <leafValues>
            1.9891662895679474e-01 -1.0545805096626282e-01</leafValues></_>
        <_>
          <internalNodes>
            0 -1 114 -5.2348768804222345e-04</internalNodes>
          <leafValues>
            -3.2274007797241211e-01 5.9407081454992294e-02</leafValues></_>
        <_>
          <internalNodes>
            0 -1 310 6.0667621437460184e-04</internalNodes>
          <leafValues>
            -1.1192198842763901e-01 1.8047559261322021e-01</leafValues></_>
        <_>
          <internalNodes>
            0 -1 385 -1.7225896008312702e-03</internalNodes>
          <leafValues>
            1.5923024713993073e-01 -1.1942674219608307e-01</leafValues></_>
        <_>
          <internalNodes>
            0 -1 535 7.0886006578803062e-03</internalNodes>
          <leafValues>
            4.6701502054929733e-02 -3.8197544217109680e-01</leafValues></_>
        <_>
          <internalNodes>
            0 -1 337 1.0781465098261833e-03</internalNodes>
          <leafValues>
            -9.8915748298168182e-02 1.8145111203193665e-01</leafValues></_>
        <_>
          <internalNodes>
            0 -1 549 -2.0792376744793728e-05</internalNodes>
          <leafValues>
            1.5401561558246613e-01 -1.2476443499326706e-01</leafValues></_>
        <_>
          <internalNodes>
            0 -1 418 2.9998668469488621e-04</internalNodes>
          <leafValues>
            5.8371227234601974e-02 -3.1769144535064697e-01</leafValues></_>
        <_>
          <internalNodes>
            0 -1 343 -1.1595867108553648e-03</internalNodes>
          <leafValues>
            1.8903583288192749e-01 -9.4690263271331787e-02</leafValues></_>
        <_>
          <internalNodes>
            0 -1 346 -1.5667845727875829e-03</internalNodes>
          <leafValues>
            1.5866191685199738e-01 -1.1975480616092682e-01</leafValues></_>
        <_>
          <internalNodes>
            0 -1 393 -2.6596728712320328e-03</internalNodes>
          <leafValues>
            2.0408485829830170e-01 -8.9855104684829712e-02</leafValues></_>
        <_>
          <internalNodes>
            0 -1 282 1.3732332736253738e-03</internalNodes>
          <leafValues>
            2.9225239530205727e-02 -6.1311203241348267e-01</leafValues></_>
        <_>
          <internalNodes>
            0 -1 384 -3.4184320829808712e-03</internalNodes>
          <leafValues>
            1.8672096729278564e-01 -8.9768566191196442e-02</leafValues></_>
        <_>
          <internalNodes>
            0 -1 523 -2.3382804356515408e-03</internalNodes>
          <leafValues>
            -4.6087658405303955e-01 3.6041382700204849e-02</leafValues></_>
        <_>
          <internalNodes>
            0 -1 525 -2.5154400645988062e-05</internalNodes>
          <leafValues>
            1.5757226943969727e-01 -1.2400199472904205e-01</leafValues></_>
        <_>
          <internalNodes>
            0 -1 424 1.7704725265502930e-02</internalNodes>
          <leafValues>
            -8.2427583634853363e-02 2.1633331477642059e-01</leafValues></_>
        <_>
          <internalNodes>
            0 -1 157 -3.8119658827781677e-02</internalNodes>
          <leafValues>
            2.0064178109169006e-01 -9.5495782792568207e-02</leafValues></_>
        <_>
          <internalNodes>
            0 -1 401 4.3246299028396606e-03</internalNodes>
          <leafValues>
            -7.0903018116950989e-02 2.6782181859016418e-01</leafValues></_>
        <_>
          <internalNodes>
            0 -1 529 1.2571422383189201e-02</internalNodes>
          <leafValues>
            4.0958032011985779e-02 -4.2556467652320862e-01</leafValues></_>
        <_>
          <internalNodes>
            0 -1 517 -2.4686269171070307e-05</internalNodes>
          <leafValues>
            1.3120485842227936e-01 -1.2652476131916046e-01</leafValues></_>
        <_>
          <internalNodes>
            0 -1 101 -4.4736251235008240e-02</internalNodes>
          <leafValues>
            2.2476196289062500e-01 -7.1687117218971252e-02</leafValues></_>
        <_>
          <internalNodes>
            0 -1 392 -7.6717049814760685e-03</internalNodes>
          <leafValues>
            1.5503600239753723e-01 -1.1767623573541641e-01</leafValues></_>
        <_>
          <internalNodes>
            0 -1 374 -1.8525519408285618e-03</internalNodes>
          <leafValues>
            1.3201387226581573e-01 -1.2829592823982239e-01</leafValues></_>
        <_>
          <internalNodes>
            0 -1 32 -2.0191069692373276e-02</internalNodes>
          <leafValues>
            -3.3217173814773560e-01 5.0879143178462982e-02</leafValues></_>
        <_>
          <internalNodes>
            0 -1 46 2.6831131428480148e-02</internalNodes>
          <leafValues>
            -6.7551530897617340e-02 2.5961455702781677e-01</leafValues></_>
        <_>
          <internalNodes>
            0 -1 491 -3.3521330915391445e-03</internalNodes>
          <leafValues>
            2.0279902219772339e-01 -7.6137848198413849e-02</leafValues></_>
        <_>
          <internalNodes>
            0 -1 497 1.3060739729553461e-03</internalNodes>
          <leafValues>
            -8.4012299776077271e-02 2.4665375053882599e-01</leafValues></_>
        <_>
          <internalNodes>
            0 -1 281 -1.2259655632078648e-03</internalNodes>
          <leafValues>
            -3.9907562732696533e-01 4.2994294315576553e-02</leafValues></_>
        <_>
          <internalNodes>
            0 -1 254 -8.2245897501707077e-03</internalNodes>
          <leafValues>
            2.7063682675361633e-01 -6.2799736857414246e-02</leafValues></_>
        <_>
          <internalNodes>
            0 -1 549 -5.8990740217268467e-04</internalNodes>
          <leafValues>
            -3.3174872398376465e-01 4.6348690986633301e-02</leafValues></_>
        <_>
          <internalNodes>
            0 -1 526 9.8439364228397608e-04</internalNodes>
          <leafValues>
            2.4882975965738297e-02 -5.7504159212112427e-01</leafValues></_>
        <_>
          <internalNodes>
            0 -1 183 -8.5244420915842056e-03</internalNodes>
          <leafValues>
            2.9758393764495850e-01 -5.1292810589075089e-02</leafValues></_>
        <_>
          <internalNodes>
            0 -1 291 -4.5299604535102844e-03</internalNodes>
          <leafValues>
            1.9258572161197662e-01 -7.4666500091552734e-02</leafValues></_></weakClassifiers></_>
    <!-- stage 6 -->
    <_>
      <maxWeakCount>83</maxWeakCount>
      <stageThreshold>-1.8131324052810669e+00</stageThreshold>
      <weakClassifiers>
        <_>
          <internalNodes>
            0 -1 132 -1.8077659606933594e-01</internalNodes>
          <leafValues>
            -2.0086705684661865e-01 -6.2393969297409058e-01</leafValues></_>
        <_>
          <internalNodes>
            0 -1 512 -1.9165778940077871e-04</internalNodes>
          <leafValues>
            -4.3886792659759521e-01 1.4502675272524357e-02</leafValues></_>
        <_>
          <internalNodes>
            0 -1 214 -2.7317270636558533e-02</internalNodes>
          <leafValues>
            2.9213902354240417e-01 -1.1061047017574310e-01</leafValues></_>
        <_>
          <internalNodes>
            0 -1 433 4.2965877801179886e-03</internalNodes>
          <leafValues>
            -2.5270169973373413e-01 1.3047446310520172e-01</leafValues></_>
        <_>
          <internalNodes>
            0 -1 512 3.5714078694581985e-04</internalNodes>
          <leafValues>
            1.1517281830310822e-01 -3.3427521586418152e-01</leafValues></_>
        <_>
          <internalNodes>
            0 -1 209 -2.0755933597683907e-02</internalNodes>
          <leafValues>
            2.5389409065246582e-01 -1.0943916440010071e-01</leafValues></_>
        <_>
          <internalNodes>
            0 -1 219 -9.7430907189846039e-03</internalNodes>
          <leafValues>
            3.5154837369918823e-01 -8.5111409425735474e-02</leafValues></_>
        <_>
          <internalNodes>
            0 -1 382 4.9226253759115934e-04</internalNodes>
          <leafValues>
            5.3912982344627380e-02 -4.8343512415885925e-01</leafValues></_>
        <_>
          <internalNodes>
            0 -1 382 -3.1275249784812331e-04</internalNodes>
          <leafValues>
            -3.9205014705657959e-01 9.5386527478694916e-02</leafValues></_>
        <_>
          <internalNodes>
            0 -1 24 -1.5407204627990723e-02</internalNodes>
          <leafValues>
            2.7856111526489258e-01 -1.1730547994375229e-01</leafValues></_>
        <_>
          <internalNodes>
            0 -1 294 -7.3624174110591412e-03</internalNodes>
          <leafValues>
            3.4615525603294373e-01 -8.3150498569011688e-02</leafValues></_>
        <_>
          <internalNodes>
            0 -1 170 -5.1939226686954498e-02</internalNodes>
          <leafValues>
            2.5385695695877075e-01 -1.0969965904951096e-01</leafValues></_>
        <_>
          <internalNodes>
            0 -1 475 -1.8730187730398029e-04</internalNodes>
          <leafValues>
            2.1006186306476593e-01 -1.3562144339084625e-01</leafValues></_>
        <_>
          <internalNodes>
            0 -1 6 -8.7430894374847412e-02</internalNodes>
          <leafValues>
            3.3236089348793030e-01 -7.4855096638202667e-02</leafValues></_>
        <_>
          <internalNodes>
            0 -1 175 -2.6652578264474869e-02</internalNodes>
          <leafValues>
            1.6277942061424255e-01 -1.5958137810230255e-01</leafValues></_>
        <_>
          <internalNodes>
            0 -1 463 -1.0448619723320007e-02</internalNodes>
          <leafValues>
            2.3181720077991486e-01 -1.0710095614194870e-01</leafValues></_>
        <_>
          <internalNodes>
            0 -1 79 -3.1628331635147333e-04</internalNodes>
          <leafValues>
            -2.7051514387130737e-01 8.1835150718688965e-02</leafValues></_>
        <_>
          <internalNodes>
            0 -1 76 -9.2316127847880125e-05</internalNodes>
          <leafValues>
            1.4348182082176208e-01 -1.4245215058326721e-01</leafValues></_>
        <_>
          <internalNodes>
            0 -1 210 3.4882000181823969e-04</internalNodes>
          <leafValues>
            5.4776456207036972e-02 -3.7300384044647217e-01</leafValues></_>
        <_>
          <internalNodes>
            0 -1 356 -5.5940197780728340e-03</internalNodes>
          <leafValues>
            2.8709971904754639e-01 -6.9049932062625885e-02</leafValues></_>
        <_>
          <internalNodes>
            0 -1 210 -4.1900342330336571e-04</internalNodes>
          <leafValues>
            -3.6431255936622620e-01 5.3432606160640717e-02</leafValues></_>
        <_>
          <internalNodes>
            0 -1 232 -5.6506218388676643e-03</internalNodes>
          <leafValues>
            3.1330353021621704e-01 -7.2817474603652954e-02</leafValues></_>
        <_>
          <internalNodes>
            0 -1 40 -1.7376666888594627e-02</internalNodes>
          <leafValues>
            -3.4335699677467346e-01 5.5455837398767471e-02</leafValues></_>
        <_>
          <internalNodes>
            0 -1 417 -1.2444772291928530e-03</internalNodes>
          <leafValues>
            -3.7540778517723083e-01 4.6321071684360504e-02</leafValues></_>
        <_>
          <internalNodes>
            0 -1 1 2.6726182113634422e-05</internalNodes>
          <leafValues>
            -1.3697780668735504e-01 1.3652862608432770e-01</leafValues></_>
        <_>
          <internalNodes>
            0 -1 110 2.9602511785924435e-03</internalNodes>
          <leafValues>
            -9.6288710832595825e-02 1.7372485995292664e-01</leafValues></_>
        <_>
          <internalNodes>
            0 -1 159 -1.4350592158734798e-02</internalNodes>
          <leafValues>
            2.2543141245841980e-01 -9.0300709009170532e-02</leafValues></_>
        <_>
          <internalNodes>
            0 -1 144 -1.0339170694351196e-01</internalNodes>
          <leafValues>
            2.9065510630607605e-01 -5.8906130492687225e-02</leafValues></_>
        <_>
          <internalNodes>
            0 -1 216 2.8282683342695236e-02</internalNodes>
          <leafValues>
            -6.9921687245368958e-02 2.5649917125701904e-01</leafValues></_>
        <_>
          <internalNodes>
            0 -1 177 -8.2481000572443008e-03</internalNodes>
          <leafValues>
            2.3730123043060303e-01 -7.0403285324573517e-02</leafValues></_>
        <_>
          <internalNodes>
            0 -1 375 2.8437054716050625e-03</internalNodes>
          <leafValues>
            -5.8288887143135071e-02 2.7529618144035339e-01</leafValues></_>
        <_>
          <internalNodes>
            0 -1 513 -6.3960370607674122e-04</internalNodes>
          <leafValues>
            -5.2997398376464844e-01 3.1410794705152512e-02</leafValues></_>
        <_>
          <internalNodes>
            0 -1 527 -2.5251383704016916e-05</internalNodes>
          <leafValues>
            1.3463883101940155e-01 -1.2073425203561783e-01</leafValues></_>
        <_>
          <internalNodes>
            0 -1 503 -2.5554839521646500e-04</internalNodes>
          <leafValues>
            -2.8889006376266479e-01 5.8333370834589005e-02</leafValues></_>
        <_>
          <internalNodes>
            0 -1 344 4.4980919919908047e-03</internalNodes>
          <leafValues>
            -7.2547003626823425e-02 2.1817660331726074e-01</leafValues></_>
        <_>
          <internalNodes>
            0 -1 20 -2.7205520309507847e-03</internalNodes>
          <leafValues>
            2.0801343023777008e-01 -7.3630213737487793e-02</leafValues></_>
        <_>
          <internalNodes>
            0 -1 428 3.1730189919471741e-02</internalNodes>
          <leafValues>
            -8.9191205799579620e-02 1.7664173245429993e-01</leafValues></_>
        <_>
          <internalNodes>
            0 -1 457 -2.8495665639638901e-02</internalNodes>
          <leafValues>
            3.4680616855621338e-01 -5.2033670246601105e-02</leafValues></_>
        <_>
          <internalNodes>
            0 -1 350 -4.8269447870552540e-04</internalNodes>
          <leafValues>
            1.2550193071365356e-01 -1.3044592738151550e-01</leafValues></_>
        <_>
          <internalNodes>
            0 -1 303 -3.0718375928699970e-03</internalNodes>
          <leafValues>
            1.7309668660163879e-01 -8.8679045438766479e-02</leafValues></_>
        <_>
          <internalNodes>
            0 -1 201 -5.4676141589879990e-03</internalNodes>
          <leafValues>
            1.8481707572937012e-01 -8.5629478096961975e-02</leafValues></_>
        <_>
          <internalNodes>
            0 -1 371 -1.0763794416561723e-03</internalNodes>
          <leafValues>
            1.6806234419345856e-01 -8.7242133915424347e-02</leafValues></_>
        <_>
          <internalNodes>
            0 -1 228 3.0265110544860363e-03</internalNodes>
          <leafValues>
            -1.3299432396888733e-01 1.0859620571136475e-01</leafValues></_>
        <_>
          <internalNodes>
            0 -1 308 -3.5554082132875919e-03</internalNodes>
          <leafValues>
            1.6970507800579071e-01 -9.9290266633033752e-02</leafValues></_>
        <_>
          <internalNodes>
            0 -1 90 1.8530741799622774e-03</internalNodes>
          <leafValues>
            3.4588977694511414e-02 -4.4345882534980774e-01</leafValues></_>
        <_>
          <internalNodes>
            0 -1 88 2.5595905754016712e-05</internalNodes>
          <leafValues>
            -1.2847420573234558e-01 1.4982588589191437e-01</leafValues></_>
        <_>
          <internalNodes>
            0 -1 538 8.7149697355926037e-04</internalNodes>
          <leafValues>
            5.2482172846794128e-02 -2.8976467251777649e-01</leafValues></_>
        <_>
          <internalNodes>
            0 -1 271 1.3262731954455376e-03</internalNodes>
          <leafValues>
            -8.8877633213996887e-02 1.6400083899497986e-01</leafValues></_>
        <_>
          <internalNodes>
            0 -1 88 4.8099696869030595e-04</internalNodes>
          <leafValues>
            3.9666578173637390e-02 -3.4203147888183594e-01</leafValues></_>
        <_>
          <internalNodes>
            0 -1 515 -8.9452356100082397e-02</internalNodes>
          <leafValues>
            -6.2057667970657349e-01 2.0092383027076721e-02</leafValues></_>
        <_>
          <internalNodes>
            0 -1 470 -3.6194624844938517e-03</internalNodes>
          <leafValues>
            1.1280007660388947e-01 -1.2032898515462875e-01</leafValues></_>
        <_>
          <internalNodes>
            0 -1 543 -7.7250204049050808e-04</internalNodes>
          <leafValues>
            -3.3480867743492126e-01 3.9946768432855606e-02</leafValues></_>
        <_>
          <internalNodes>
            0 -1 264 -1.8268695566803217e-03</internalNodes>
          <leafValues>
            1.7303010821342468e-01 -8.0429896712303162e-02</leafValues></_>
        <_>
          <internalNodes>
            0 -1 296 1.1558448895812035e-03</internalNodes>
          <leafValues>
            -8.3900630474090576e-02 1.6665203869342804e-01</leafValues></_>
        <_>
          <internalNodes>
            0 -1 487 -2.2584330508834682e-05</internalNodes>
          <leafValues>
            1.0843638330698013e-01 -1.2241827696561813e-01</leafValues></_>
        <_>
          <internalNodes>
            0 -1 477 -5.9525843709707260e-02</internalNodes>
          <leafValues>
            -6.8624508380889893e-01 1.8258390948176384e-02</leafValues></_>
        <_>
          <internalNodes>
            0 -1 240 -6.1189644038677216e-03</internalNodes>
          <leafValues>
            1.9553816318511963e-01 -6.7159250378608704e-02</leafValues></_>
        <_>
          <internalNodes>
            0 -1 241 7.0830085314810276e-03</internalNodes>
          <leafValues>
            -6.5193235874176025e-02 2.3044641315937042e-01</leafValues></_>
        <_>
          <internalNodes>
            0 -1 238 -3.9353919029235840e-01</internalNodes>
          <leafValues>
            3.0806988477706909e-01 -4.4753011316061020e-02</leafValues></_>
        <_>
          <internalNodes>
            0 -1 141 3.5283291339874268e-01</internalNodes>
          <leafValues>
            -2.8555031865835190e-02 5.0102114677429199e-01</leafValues></_>
        <_>
          <internalNodes>
            0 -1 35 -2.3490844294428825e-02</internalNodes>
          <leafValues>
            1.1788164824247360e-01 -1.1653811484575272e-01</leafValues></_>
        <_>
          <internalNodes>
            0 -1 276 -6.4547210931777954e-03</internalNodes>
          <leafValues>
            2.8727442026138306e-01 -5.1376350224018097e-02</leafValues></_>
        <_>
          <internalNodes>
            0 -1 399 -6.2213875353336334e-03</internalNodes>
          <leafValues>
            1.4490684866905212e-01 -9.4210833311080933e-02</leafValues></_>
        <_>
          <internalNodes>
            0 -1 369 -2.6390010025352240e-03</internalNodes>
          <leafValues>
            1.6108407080173492e-01 -8.2413561642169952e-02</leafValues></_>
        <_>
          <internalNodes>
            0 -1 543 2.1653178555425256e-04</internalNodes>
          <leafValues>
            6.2933377921581268e-02 -2.0417147874832153e-01</leafValues></_>
        <_>
          <internalNodes>
            0 -1 273 -8.0177448689937592e-03</internalNodes>
          <leafValues>
            2.5530576705932617e-01 -5.2857056260108948e-02</leafValues></_>
        <_>
          <internalNodes>
            0 -1 362 2.8967991238459945e-04</internalNodes>
          <leafValues>
            5.5904224514961243e-02 -2.3087891936302185e-01</leafValues></_>
        <_>
          <internalNodes>
            0 -1 426 -9.3724625185132027e-03</internalNodes>
          <leafValues>
            -8.5483884811401367e-01 1.3606413267552853e-02</leafValues></_>
        <_>
          <internalNodes>
            0 -1 109 -1.8110843375325203e-03</internalNodes>
          <leafValues>
            1.8525300920009613e-01 -7.1827925741672516e-02</leafValues></_>
        <_>
          <internalNodes>
            0 -1 108 7.2428619023412466e-04</internalNodes>
          <leafValues>
            -6.7561887204647064e-02 1.9830672442913055e-01</leafValues></_>
        <_>
          <internalNodes>
            0 -1 71 -4.4759572483599186e-03</internalNodes>
          <leafValues>
            -3.9708986878395081e-01 3.1812448054552078e-02</leafValues></_>
        <_>
          <internalNodes>
            0 -1 275 -9.4028003513813019e-03</internalNodes>
          <leafValues>
            3.2909324765205383e-01 -4.0590852499008179e-02</leafValues></_>
        <_>
          <internalNodes>
            0 -1 72 3.6385513376444578e-03</internalNodes>
          <leafValues>
            4.1915625333786011e-02 -3.1728416681289673e-01</leafValues></_>
        <_>
          <internalNodes>
            0 -1 367 -1.6381584107875824e-02</internalNodes>
          <leafValues>
            -6.5956026315689087e-01 1.6701031476259232e-02</leafValues></_>
        <_>
          <internalNodes>
            0 -1 182 -7.6946276240050793e-03</internalNodes>
          <leafValues>
            1.8290813267230988e-01 -6.5638527274131775e-02</leafValues></_>
        <_>
          <internalNodes>
            0 -1 464 1.6453771386295557e-03</internalNodes>
          <leafValues>
            -8.7215773761272430e-02 1.3396249711513519e-01</leafValues></_>
        <_>
          <internalNodes>
            0 -1 482 1.1587791144847870e-02</internalNodes>
          <leafValues>
            -3.4227933734655380e-02 3.6400869488716125e-01</leafValues></_>
        <_>
          <internalNodes>
            0 -1 472 -2.0315130241215229e-03</internalNodes>
          <leafValues>
            -6.4670765399932861e-01 2.0835967734456062e-02</leafValues></_>
        <_>
          <internalNodes>
            0 -1 90 1.4126034511718899e-04</internalNodes>
          <leafValues>
            -8.8480763137340546e-02 1.3968656957149506e-01</leafValues></_>
        <_>
          <internalNodes>
            0 -1 233 2.2032872948329896e-04</internalNodes>
          <leafValues>
            5.9288013726472855e-02 -2.1935895085334778e-01</leafValues></_>
        <_>
          <internalNodes>
            0 -1 536 -7.0172827690839767e-03</internalNodes>
          <leafValues>
            -5.0604885816574097e-01 2.2751867771148682e-02</leafValues></_>
        <_>
          <internalNodes>
            0 -1 307 2.3404208477586508e-03</internalNodes>
          <leafValues>
            -4.5695513486862183e-02 2.6604944467544556e-01</leafValues></_>
        <_>
          <internalNodes>
            0 -1 304 -2.7945879846811295e-03</internalNodes>
          <leafValues>
            2.1687674522399902e-01 -5.4751150310039520e-02</leafValues></_></weakClassifiers></_>
    <!-- stage 7 -->
    <_>
      <maxWeakCount>97</maxWeakCount>
      <stageThreshold>-1.6869565248489380e+00</stageThreshold>
      <weakClassifiers>
        <_>
          <internalNodes>
            0 -1 230 1.4584207907319069e-02</internalNodes>
          <leafValues>
            -6.9369113445281982e-01 -4.2502683401107788e-01</leafValues></_>
        <_>
          <internalNodes>
            0 -1 234 -5.5550434626638889e-04</internalNodes>
          <leafValues>
            -5.2237027883529663e-01 1.0559427551925182e-02</leafValues></_>
        <_>
          <internalNodes>
            0 -1 234 4.3183984234929085e-04</internalNodes>
          <leafValues>
            1.2408488243818283e-01 -3.9960032701492310e-01</leafValues></_>
        <_>
          <internalNodes>
            0 -1 63 -7.5961248949170113e-03</internalNodes>
          <leafValues>
            1.8053355813026428e-01 -1.7472274601459503e-01</leafValues></_>
        <_>
          <internalNodes>
            0 -1 89 -2.6052465545944870e-04</internalNodes>
          <leafValues>
            -3.7197354435920715e-01 7.0994026958942413e-02</leafValues></_>
        <_>
          <internalNodes>
            0 -1 89 2.8453784761950374e-04</internalNodes>
          <leafValues>
            7.9389430582523346e-02 -3.1731179356575012e-01</leafValues></_>
        <_>
          <internalNodes>
            0 -1 469 7.1859974414110184e-03</internalNodes>
          <leafValues>
            -1.8015427887439728e-01 1.4834849536418915e-01</leafValues></_>
        <_>
          <internalNodes>
            0 -1 96 -3.6712586879730225e-02</internalNodes>
          <leafValues>
            1.6644118726253510e-01 -1.4295022189617157e-01</leafValues></_>
        <_>
          <internalNodes>
            0 -1 447 -1.2133802520111203e-03</internalNodes>
          <leafValues>
            -3.8866734504699707e-01 5.6283649057149887e-02</leafValues></_>
        <_>
          <internalNodes>
            0 -1 543 4.1403045179322362e-04</internalNodes>
          <leafValues>
            5.6455109268426895e-02 -3.0287823081016541e-01</leafValues></_>
        <_>
          <internalNodes>
            0 -1 528 -2.4890214262995869e-05</internalNodes>
          <leafValues>
            1.3729295134544373e-01 -1.2602417171001434e-01</leafValues></_>
        <_>
          <internalNodes>
            0 -1 543 -4.4983054976910353e-04</internalNodes>
          <leafValues>
            -3.0820411443710327e-01 5.8406107127666473e-02</leafValues></_>
        <_>
          <internalNodes>
            0 -1 462 -1.5586001798510551e-02</internalNodes>
          <leafValues>
            2.5519940257072449e-01 -7.4946731328964233e-02</leafValues></_>
        <_>
          <internalNodes>
            0 -1 53 -2.1879356354475021e-02</internalNodes>
          <leafValues>
            1.9531728327274323e-01 -8.8760919868946075e-02</leafValues></_>
        <_>
          <internalNodes>
            0 -1 34 4.5764233916997910e-02</internalNodes>
          <leafValues>
            4.0257237851619720e-02 -4.4081395864486694e-01</leafValues></_>
        <_>
          <internalNodes>
            0 -1 98 -2.9435953497886658e-01</internalNodes>
          <leafValues>
            2.7149873971939087e-01 -6.6804714500904083e-02</leafValues></_>
        <_>
          <internalNodes>
            0 -1 223 -1.9173897802829742e-02</internalNodes>
          <leafValues>
            1.7423191666603088e-01 -9.0959563851356506e-02</leafValues></_>
        <_>
          <internalNodes>
            0 -1 328 4.3178945779800415e-03</internalNodes>
          <leafValues>
            -5.5968254804611206e-02 2.9024997353553772e-01</leafValues></_>
        <_>
          <internalNodes>
            0 -1 503 3.3320760121569037e-04</internalNodes>
          <leafValues>
            5.4955687373876572e-02 -2.9869893193244934e-01</leafValues></_>
        <_>
          <internalNodes>
            0 -1 329 -2.9754391871392727e-03</internalNodes>
          <leafValues>
            2.6680067181587219e-01 -6.1236910521984100e-02</leafValues></_>
        <_>
          <internalNodes>
            0 -1 478 4.4202613644301891e-03</internalNodes>
          <leafValues>
            -5.0817470997571945e-02 3.0037969350814819e-01</leafValues></_>
        <_>
          <internalNodes>
            0 -1 78 -8.3780288696289063e-04</internalNodes>
          <leafValues>
            -3.7868380546569824e-01 4.1436020284891129e-02</leafValues></_>
        <_>
          <internalNodes>
            0 -1 252 -3.2212525606155396e-02</internalNodes>
          <leafValues>
            2.1958532929420471e-01 -7.6878949999809265e-02</leafValues></_>
        <_>
          <internalNodes>
            0 -1 67 -4.0792436338961124e-03</internalNodes>
          <leafValues>
            -4.0570509433746338e-01 3.9348471909761429e-02</leafValues></_>
        <_>
          <internalNodes>
            0 -1 105 -6.0443598777055740e-03</internalNodes>
          <leafValues>
            2.6717826724052429e-01 -5.9405785053968430e-02</leafValues></_>
        <_>
          <internalNodes>
            0 -1 10 9.3332098913379014e-05</internalNodes>
          <leafValues>
            -1.2141122668981552e-01 1.1912666261196136e-01</leafValues></_>
        <_>
          <internalNodes>
            0 -1 364 5.3748430218547583e-04</internalNodes>
          <leafValues>
            3.9736036211252213e-02 -3.7278068065643311e-01</leafValues></_>
        <_>
          <internalNodes>
            0 -1 217 7.8811524435877800e-03</internalNodes>
          <leafValues>
            -6.2755472958087921e-02 2.2586095333099365e-01</leafValues></_>
        <_>
          <internalNodes>
            0 -1 258 -4.7579426318407059e-03</internalNodes>
          <leafValues>
            2.4554246664047241e-01 -6.3979946076869965e-02</leafValues></_>
        <_>
          <internalNodes>
            0 -1 9 1.2348761782050133e-02</internalNodes>
          <leafValues>
            3.9108000695705414e-02 -3.8123497366905212e-01</leafValues></_>
        <_>
          <internalNodes>
            0 -1 381 2.2010481916368008e-04</internalNodes>
          <leafValues>
            5.1493585109710693e-02 -2.6335203647613525e-01</leafValues></_>
        <_>
          <internalNodes>
            0 -1 391 -6.9032795727252960e-03</internalNodes>
          <leafValues>
            1.7188432812690735e-01 -7.5332932174205780e-02</leafValues></_>
        <_>
          <internalNodes>
            0 -1 255 -6.3641909509897232e-03</internalNodes>
          <leafValues>
            2.9039326310157776e-01 -5.0258088856935501e-02</leafValues></_>
        <_>
          <internalNodes>
            0 -1 524 -6.1226339312270284e-05</internalNodes>
          <leafValues>
            1.2637695670127869e-01 -1.1956989765167236e-01</leafValues></_>
        <_>
          <internalNodes>
            0 -1 283 1.1805208632722497e-03</internalNodes>
          <leafValues>
            4.4067159295082092e-02 -3.1685382127761841e-01</leafValues></_>
        <_>
          <internalNodes>
            0 -1 147 -9.5408856868743896e-03</internalNodes>
          <leafValues>
            1.4028207957744598e-01 -9.4630599021911621e-02</leafValues></_>
        <_>
          <internalNodes>
            0 -1 57 -3.8810838013887405e-03</internalNodes>
          <leafValues>
            -3.1804385781288147e-01 3.9410945028066635e-02</leafValues></_>
        <_>
          <internalNodes>
            0 -1 542 -2.9744922649115324e-03</internalNodes>
          <leafValues>
            -2.6511979103088379e-01 4.4933725148439407e-02</leafValues></_>
        <_>
          <internalNodes>
            0 -1 543 -2.6190813514403999e-05</internalNodes>
          <leafValues>
            1.2492530792951584e-01 -1.0792515426874161e-01</leafValues></_>
        <_>
          <internalNodes>
            0 -1 444 -4.6270452439785004e-03</internalNodes>
          <leafValues>
            1.3855573534965515e-01 -9.2272274196147919e-02</leafValues></_>
        <_>
          <internalNodes>
            0 -1 521 -4.8043159767985344e-03</internalNodes>
          <leafValues>
            -3.2597744464874268e-01 3.9254691451787949e-02</leafValues></_>
        <_>
          <internalNodes>
            0 -1 123 1.8442822992801666e-01</internalNodes>
          <leafValues>
            -5.0225127488374710e-02 2.8519329428672791e-01</leafValues></_>
        <_>
          <internalNodes>
            0 -1 70 -8.8426992297172546e-03</internalNodes>
          <leafValues>
            9.8825581371784210e-02 -1.3545188307762146e-01</leafValues></_>
        <_>
          <internalNodes>
            0 -1 91 2.7942645829170942e-04</internalNodes>
          <leafValues>
            -8.8198095560073853e-02 1.4980182051658630e-01</leafValues></_>
        <_>
          <internalNodes>
            0 -1 116 1.1606268817558885e-03</internalNodes>
          <leafValues>
            3.8543742150068283e-02 -3.5247951745986938e-01</leafValues></_>
        <_>
          <internalNodes>
            0 -1 514 4.5229680836200714e-05</internalNodes>
          <leafValues>
            7.8345231711864471e-02 -1.7029768228530884e-01</leafValues></_>
        <_>
          <internalNodes>
            0 -1 302 -2.1213483996689320e-03</internalNodes>
          <leafValues>
            1.4536623656749725e-01 -8.6278907954692841e-02</leafValues></_>
        <_>
          <internalNodes>
            0 -1 372 -1.1206329800188541e-03</internalNodes>
          <leafValues>
            1.5061102807521820e-01 -9.2908099293708801e-02</leafValues></_>
        <_>
          <internalNodes>
            0 -1 124 -3.2836676109582186e-03</internalNodes>
          <leafValues>
            1.5851897001266479e-01 -7.1762874722480774e-02</leafValues></_>
        <_>
          <internalNodes>
            0 -1 449 8.0044192145578563e-05</internalNodes>
          <leafValues>
            6.7768409848213196e-02 -1.6560108959674835e-01</leafValues></_>
        <_>
          <internalNodes>
            0 -1 439 -2.2596819326281548e-03</internalNodes>
          <leafValues>
            -3.0979698896408081e-01 3.7882365286350250e-02</leafValues></_>
        <_>
          <internalNodes>
            0 -1 47 2.0642094314098358e-03</internalNodes>
          <leafValues>
            -5.8702431619167328e-02 1.9850715994834900e-01</leafValues></_>
        <_>
          <internalNodes>
            0 -1 50 -1.6471233684569597e-03</internalNodes>
          <leafValues>
            1.1015398800373077e-01 -1.1405676603317261e-01</leafValues></_>
        <_>
          <internalNodes>
            0 -1 306 -3.1947898678481579e-03</internalNodes>
          <leafValues>
            1.3638718426227570e-01 -8.4159329533576965e-02</leafValues></_>
        <_>
          <internalNodes>
            0 -1 4 2.5365900993347168e-01</internalNodes>
          <leafValues>
            -4.0186088532209396e-02 2.8275984525680542e-01</leafValues></_>
        <_>
          <internalNodes>
            0 -1 169 -2.0875588059425354e-02</internalNodes>
          <leafValues>
            1.8557518720626831e-01 -5.6944806128740311e-02</leafValues></_>
        <_>
          <internalNodes>
            0 -1 289 -1.2673102319240570e-02</internalNodes>
          <leafValues>
            1.4466440677642822e-01 -8.4772720932960510e-02</leafValues></_>
        <_>
          <internalNodes>
            0 -1 103 9.2616714537143707e-03</internalNodes>
          <leafValues>
            -6.1455529183149338e-02 1.7535960674285889e-01</leafValues></_>
        <_>
          <internalNodes>
            0 -1 502 -4.7843175707384944e-04</internalNodes>
          <leafValues>
            -3.6510756611824036e-01 3.0826559290289879e-02</leafValues></_>
        <_>
          <internalNodes>
            0 -1 326 -3.2402297947555780e-03</internalNodes>
          <leafValues>
            8.2362987101078033e-02 -1.3829979300498962e-01</leafValues></_>
        <_>
          <internalNodes>
            0 -1 507 -6.6098226234316826e-03</internalNodes>
          <leafValues>
            2.7087160944938660e-01 -4.2680520564317703e-02</leafValues></_>
        <_>
          <internalNodes>
            0 -1 243 -1.8123472109436989e-03</internalNodes>
          <leafValues>
            1.5246994793415070e-01 -7.3804445564746857e-02</leafValues></_>
        <_>
          <internalNodes>
            0 -1 189 -2.3460183292627335e-03</internalNodes>
          <leafValues>
            1.0663102567195892e-01 -1.0194931179285049e-01</leafValues></_>
        <_>
          <internalNodes>
            0 -1 120 2.4712044250918552e-05</internalNodes>
          <leafValues>
            -9.0816192328929901e-02 1.1807364225387573e-01</leafValues></_>
        <_>
          <internalNodes>
            0 -1 179 -2.9504918493330479e-03</internalNodes>
          <leafValues>
            1.5292443335056305e-01 -7.1250170469284058e-02</leafValues></_>
        <_>
          <internalNodes>
            0 -1 459 1.1626143939793110e-02</internalNodes>
          <leafValues>
            -5.2799083292484283e-02 1.9700969755649567e-01</leafValues></_>
        <_>
          <internalNodes>
            0 -1 519 -2.2529125999426469e-05</internalNodes>
          <leafValues>
            1.2018897384405136e-01 -9.7896568477153778e-02</leafValues></_>
        <_>
          <internalNodes>
            0 -1 176 -2.3120377212762833e-02</internalNodes>
          <leafValues>
            1.7394196987152100e-01 -6.6921718418598175e-02</leafValues></_>
        <_>
          <internalNodes>
            0 -1 518 2.1251369267702103e-02</internalNodes>
          <leafValues>
            2.4633813649415970e-02 -4.5209762454032898e-01</leafValues></_>
        <_>
          <internalNodes>
            0 -1 333 -5.8583100326359272e-04</internalNodes>
          <leafValues>
            1.9247013330459595e-01 -5.8404538780450821e-02</leafValues></_>
        <_>
          <internalNodes>
            0 -1 277 4.6431677765212953e-04</internalNodes>
          <leafValues>
            5.7174149900674820e-02 -1.9950492680072784e-01</leafValues></_>
        <_>
          <internalNodes>
            0 -1 321 -3.6545409820973873e-03</internalNodes>
          <leafValues>
            -7.0081800222396851e-01 1.5252930112183094e-02</leafValues></_>
        <_>
          <internalNodes>
            0 -1 119 -1.4378348365426064e-02</internalNodes>
          <leafValues>
            1.5306946635246277e-01 -7.1945980191230774e-02</leafValues></_>
        <_>
          <internalNodes>
            0 -1 158 -4.4701779261231422e-03</internalNodes>
          <leafValues>
            1.1585319042205811e-01 -9.4707943499088287e-02</leafValues></_>
        <_>
          <internalNodes>
            0 -1 17 -2.2794861346483231e-02</internalNodes>
          <leafValues>
            -4.1679725050926208e-01 2.4971168488264084e-02</leafValues></_>
        <_>
          <internalNodes>
            0 -1 279 1.3034143485128880e-03</internalNodes>
          <leafValues>
            -6.8245708942413330e-02 1.5395399928092957e-01</leafValues></_>
        <_>
          <internalNodes>
            0 -1 256 2.2261842968873680e-04</internalNodes>
          <leafValues>
            4.9524072557687759e-02 -2.1866321563720703e-01</leafValues></_>
        <_>
          <internalNodes>
            0 -1 320 1.0857012122869492e-02</internalNodes>
          <leafValues>
            -6.4022839069366455e-02 1.6598059237003326e-01</leafValues></_>
        <_>
          <internalNodes>
            0 -1 313 5.7041191030293703e-04</internalNodes>
          <leafValues>
            -8.2720845937728882e-02 1.2441749870777130e-01</leafValues></_>
        <_>
          <internalNodes>
            0 -1 322 -6.1753327026963234e-03</internalNodes>
          <leafValues>
            -4.5702117681503296e-01 2.1803651005029678e-02</leafValues></_>
        <_>
          <internalNodes>
            0 -1 0 -6.6107706516049802e-05</internalNodes>
          <leafValues>
            -1.5968064963817596e-01 6.6076941788196564e-02</leafValues></_>
        <_>
          <internalNodes>
            0 -1 155 4.2246311204507947e-04</internalNodes>
          <leafValues>
            -6.5557055175304413e-02 1.6539312899112701e-01</leafValues></_>
        <_>
          <internalNodes>
            0 -1 160 -1.2218673713505268e-02</internalNodes>
          <leafValues>
            1.1382404714822769e-01 -9.1716043651103973e-02</leafValues></_>
        <_>
          <internalNodes>
            0 -1 430 2.0029019564390182e-02</internalNodes>
          <leafValues>
            -8.8880322873592377e-02 1.3521529734134674e-01</leafValues></_>
        <_>
          <internalNodes>
            0 -1 366 4.1439212858676910e-02</internalNodes>
          <leafValues>
            -6.1248660087585449e-02 1.8525418639183044e-01</leafValues></_>
        <_>
          <internalNodes>
            0 -1 93 2.1267146803438663e-03</internalNodes>
          <leafValues>
            -7.4075348675251007e-02 1.4516068994998932e-01</leafValues></_>
        <_>
          <internalNodes>
            0 -1 420 -3.1519788317382336e-03</internalNodes>
          <leafValues>
            -4.6564346551895142e-01 2.8051052242517471e-02</leafValues></_>
        <_>
          <internalNodes>
            0 -1 74 -8.3570997230708599e-04</internalNodes>
          <leafValues>
            -3.0631634593009949e-01 3.5374801605939865e-02</leafValues></_>
        <_>
          <internalNodes>
            0 -1 370 -3.4297637641429901e-02</internalNodes>
          <leafValues>
            -6.8790107965469360e-01 1.4640411362051964e-02</leafValues></_>
        <_>
          <internalNodes>
            0 -1 56 3.3663013018667698e-03</internalNodes>
          <leafValues>
            1.4188234694302082e-02 -5.9555733203887939e-01</leafValues></_>
        <_>
          <internalNodes>
            0 -1 379 2.9549136525020003e-04</internalNodes>
          <leafValues>
            6.0109134763479233e-02 -1.6406813263893127e-01</leafValues></_>
        <_>
          <internalNodes>
            0 -1 155 -5.3009489784017205e-04</internalNodes>
          <leafValues>
            1.7292302846908569e-01 -5.9093274176120758e-02</leafValues></_>
        <_>
          <internalNodes>
            0 -1 268 -2.0291949622333050e-03</internalNodes>
          <leafValues>
            1.2591499090194702e-01 -7.7769346535205841e-02</leafValues></_>
        <_>
          <internalNodes>
            0 -1 352 -7.0694908499717712e-03</internalNodes>
          <leafValues>
            3.3371135592460632e-01 -2.8232812881469727e-02</leafValues></_>
        <_>
          <internalNodes>
            0 -1 341 -2.0734975114464760e-02</internalNodes>
          <leafValues>
            -8.4448498487472534e-01 1.5357173979282379e-02</leafValues></_>
        <_>
          <internalNodes>
            0 -1 336 3.5176111850887537e-04</internalNodes>
          <leafValues>
            5.4602704942226410e-02 -1.7965839803218842e-01</leafValues></_>
        <_>
          <internalNodes>
            0 -1 493 -3.0965069308876991e-03</internalNodes>
          <leafValues>
            1.3758252561092377e-01 -7.0939451456069946e-02</leafValues></_></weakClassifiers></_>
    <!-- stage 8 -->
    <_>
      <maxWeakCount>100</maxWeakCount>
      <stageThreshold>-1.7311447858810425e+00</stageThreshold>
      <weakClassifiers>
        <_>
          <internalNodes>
            0 -1 435 1.6018236055970192e-02</internalNodes>
          <leafValues>
            -6.5537083148956299e-01 -3.8423806428909302e-01</leafValues></_>
        <_>
          <internalNodes>
            0 -1 42 -1.2495411559939384e-02</internalNodes>
          <leafValues>
            1.3772721588611603e-01 -2.0496848225593567e-01</leafValues></_>
        <_>
          <internalNodes>
            0 -1 510 -2.7506856713443995e-04</internalNodes>
          <leafValues>
            -2.8720727562904358e-01 8.2020297646522522e-02</leafValues></_>
        <_>
          <internalNodes>
            0 -1 522 3.4484689240343869e-04</internalNodes>
          <leafValues>
            1.1881691962480545e-01 -2.7924725413322449e-01</leafValues></_>
        <_>
          <internalNodes>
            0 -1 270 -1.6738500446081161e-02</internalNodes>
          <leafValues>
            1.6031880676746368e-01 -1.3090276718139648e-01</leafValues></_>
        <_>
          <internalNodes>
            0 -1 138 -2.9181441641412675e-04</internalNodes>
          <leafValues>
            -2.4653618037700653e-01 8.5571974515914917e-02</leafValues></_>
        <_>
          <internalNodes>
            0 -1 138 4.4877410982735455e-04</internalNodes>
          <leafValues>
            5.7227864861488342e-02 -3.1567794084548950e-01</leafValues></_>
        <_>
          <internalNodes>
            0 -1 66 -1.3716981047764421e-03</internalNodes>
          <leafValues>
            -2.7428606152534485e-01 6.2053158879280090e-02</leafValues></_>
        <_>
          <internalNodes>
            0 -1 480 -2.5626439601182938e-03</internalNodes>
          <leafValues>
            2.3343503475189209e-01 -6.9091647863388062e-02</leafValues></_>
        <_>
          <internalNodes>
            0 -1 481 6.0802418738603592e-04</internalNodes>
          <leafValues>
            -8.3743147552013397e-02 1.8381853401660919e-01</leafValues></_>
        <_>
          <internalNodes>
            0 -1 262 -3.3489517867565155e-02</internalNodes>
          <leafValues>
            1.0351012647151947e-01 -1.4694912731647491e-01</leafValues></_>
        <_>
          <internalNodes>
            0 -1 237 -1.2793162465095520e-01</internalNodes>
          <leafValues>
            2.3083308339118958e-01 -7.5408197939395905e-02</leafValues></_>
        <_>
          <internalNodes>
            0 -1 16 -2.3356180638074875e-02</internalNodes>
          <leafValues>
            1.9111461937427521e-01 -9.1831423342227936e-02</leafValues></_>
        <_>
          <internalNodes>
            0 -1 355 1.4828043058514595e-03</internalNodes>
          <leafValues>
            -7.8816473484039307e-02 2.0070417225360870e-01</leafValues></_>
        <_>
          <internalNodes>
            0 -1 376 -1.7100186087191105e-03</internalNodes>
          <leafValues>
            3.2937625050544739e-01 -4.5784320682287216e-02</leafValues></_>
        <_>
          <internalNodes>
            0 -1 61 -1.7956235387828201e-04</internalNodes>
          <leafValues>
            1.3923132419586182e-01 -1.0691639035940170e-01</leafValues></_>
        <_>
          <internalNodes>
            0 -1 484 -6.3777796458452940e-04</internalNodes>
          <leafValues>
            -4.2569974064826965e-01 3.0342835932970047e-02</leafValues></_>
        <_>
          <internalNodes>
            0 -1 305 -1.2105239555239677e-02</internalNodes>
          <leafValues>
            2.8610274195671082e-01 -5.0720095634460449e-02</leafValues></_>
        <_>
          <internalNodes>
            0 -1 314 2.3406668333336711e-04</internalNodes>
          <leafValues>
            7.1180686354637146e-02 -2.0002213120460510e-01</leafValues></_>
        <_>
          <internalNodes>
            0 -1 315 -9.5657887868583202e-04</internalNodes>
          <leafValues>
            -3.0186131596565247e-01 4.9150280654430389e-02</leafValues></_>
        <_>
          <internalNodes>
            0 -1 445 -6.9748423993587494e-03</internalNodes>
          <leafValues>
            1.3961128890514374e-01 -1.0255823284387589e-01</leafValues></_>
        <_>
          <internalNodes>
            0 -1 131 1.0869354009628296e-03</internalNodes>
          <leafValues>
            -6.5302357077598572e-02 2.0878280699253082e-01</leafValues></_>
        <_>
          <internalNodes>
            0 -1 520 -2.2734887897968292e-02</internalNodes>
          <leafValues>
            -4.5654830336570740e-01 2.9481528326869011e-02</leafValues></_>
        <_>
          <internalNodes>
            0 -1 416 -1.1695321649312973e-02</internalNodes>
          <leafValues>
            2.1829614043235779e-01 -6.6036254167556763e-02</leafValues></_>
        <_>
          <internalNodes>
            0 -1 504 5.0454393203835934e-05</internalNodes>
          <leafValues>
            7.5922101736068726e-02 -1.6776984930038452e-01</leafValues></_>
        <_>
          <internalNodes>
            0 -1 504 -3.7993706064298749e-04</internalNodes>
          <leafValues>
            -2.4030868709087372e-01 6.0429316014051437e-02</leafValues></_>
        <_>
          <internalNodes>
            0 -1 88 2.7213300199946389e-05</internalNodes>
          <leafValues>
            -1.1341702193021774e-01 1.1998146027326584e-01</leafValues></_>
        <_>
          <internalNodes>
            0 -1 358 -4.2784102261066437e-03</internalNodes>
          <leafValues>
            1.3856555521488190e-01 -9.3042843043804169e-02</leafValues></_>
        <_>
          <internalNodes>
            0 -1 130 -6.1867595650255680e-04</internalNodes>
          <leafValues>
            1.9255384802818298e-01 -6.3723027706146240e-02</leafValues></_>
        <_>
          <internalNodes>
            0 -1 133 6.0385512188076973e-04</internalNodes>
          <leafValues>
            -6.9159053266048431e-02 1.8993470072746277e-01</leafValues></_>
        <_>
          <internalNodes>
            0 -1 78 -4.9180904170498252e-04</internalNodes>
          <leafValues>
            -2.6042905449867249e-01 4.5256555080413818e-02</leafValues></_>
        <_>
          <internalNodes>
            0 -1 280 -6.2088961713016033e-03</internalNodes>
          <leafValues>
            2.9492968320846558e-01 -4.2016085237264633e-02</leafValues></_>
        <_>
          <internalNodes>
            0 -1 78 1.8749810988083482e-04</internalNodes>
          <leafValues>
            6.5267555415630341e-02 -1.8260864913463593e-01</leafValues></_>
        <_>
          <internalNodes>
            0 -1 438 -1.7709448002278805e-04</internalNodes>
          <leafValues>
            1.2876081466674805e-01 -9.7087144851684570e-02</leafValues></_>
        <_>
          <internalNodes>
            0 -1 259 5.7607884518802166e-03</internalNodes>
          <leafValues>
            -5.3971640765666962e-02 2.0971071720123291e-01</leafValues></_>
        <_>
          <internalNodes>
            0 -1 193 -5.2023613825440407e-03</internalNodes>
          <leafValues>
            1.8446563184261322e-01 -7.9350665211677551e-02</leafValues></_>
        <_>
          <internalNodes>
            0 -1 118 -3.9510327577590942e-01</internalNodes>
          <leafValues>
            1.6423660516738892e-01 -6.8841919302940369e-02</leafValues></_>
        <_>
          <internalNodes>
            0 -1 431 1.4845748664811254e-03</internalNodes>
          <leafValues>
            -6.9115392863750458e-02 1.6877783834934235e-01</leafValues></_>
        <_>
          <internalNodes>
            0 -1 471 8.0316816456615925e-04</internalNodes>
          <leafValues>
            -1.1412310600280762e-01 1.0530612617731094e-01</leafValues></_>
        <_>
          <internalNodes>
            0 -1 248 -4.0081765502691269e-02</internalNodes>
          <leafValues>
            1.1726237833499908e-01 -1.0561423748731613e-01</leafValues></_>
        <_>
          <internalNodes>
            0 -1 339 8.0492990091443062e-03</internalNodes>
          <leafValues>
            -8.6935192346572876e-02 1.3772229850292206e-01</leafValues></_>
        <_>
          <internalNodes>
            0 -1 532 -2.5376519188284874e-03</internalNodes>
          <leafValues>
            -2.9098692536354065e-01 4.2487267404794693e-02</leafValues></_>
        <_>
          <internalNodes>
            0 -1 498 6.1507737264037132e-03</internalNodes>
          <leafValues>
            -5.7796150445938110e-02 2.1646073460578918e-01</leafValues></_>
        <_>
          <internalNodes>
            0 -1 479 -3.5390688572078943e-04</internalNodes>
          <leafValues>
            1.7584921419620514e-01 -7.1237750351428986e-02</leafValues></_>
        <_>
          <internalNodes>
            0 -1 87 5.3855467587709427e-02</internalNodes>
          <leafValues>
            2.5746034458279610e-02 -4.8869180679321289e-01</leafValues></_>
        <_>
          <internalNodes>
            0 -1 316 2.0052189938724041e-04</internalNodes>
          <leafValues>
            4.7840345650911331e-02 -2.1826866269111633e-01</leafValues></_>
        <_>
          <internalNodes>
            0 -1 361 1.8388465978205204e-03</internalNodes>
          <leafValues>
            -6.1433240771293640e-02 1.8484778702259064e-01</leafValues></_>
        <_>
          <internalNodes>
            0 -1 36 -4.0679378435015678e-03</internalNodes>
          <leafValues>
            -7.5125807523727417e-01 1.5162686817348003e-02</leafValues></_>
        <_>
          <internalNodes>
            0 -1 335 2.7035153470933437e-03</internalNodes>
          <leafValues>
            -6.4720824360847473e-02 1.6963054239749908e-01</leafValues></_>
        <_>
          <internalNodes>
            0 -1 501 -1.7731222324073315e-03</internalNodes>
          <leafValues>
            -4.6398931741714478e-01 2.4520041421055794e-02</leafValues></_>
        <_>
          <internalNodes>
            0 -1 82 1.2253532186150551e-03</internalNodes>
          <leafValues>
            4.3751168996095657e-02 -2.3355965316295624e-01</leafValues></_>
        <_>
          <internalNodes>
            0 -1 225 4.1494546458125114e-03</internalNodes>
          <leafValues>
            -5.3646873682737350e-02 1.8839471042156219e-01</leafValues></_>
        <_>
          <internalNodes>
            0 -1 55 -5.7863142341375351e-02</internalNodes>
          <leafValues>
            -4.5681986212730408e-01 2.4594247341156006e-02</leafValues></_>
        <_>
          <internalNodes>
            0 -1 440 4.8070105549413711e-05</internalNodes>
          <leafValues>
            7.5714692473411560e-02 -1.3332784175872803e-01</leafValues></_>
        <_>
          <internalNodes>
            0 -1 408 3.3720587380230427e-03</internalNodes>
          <leafValues>
            -7.0687077939510345e-02 1.4590592682361603e-01</leafValues></_>
        <_>
          <internalNodes>
            0 -1 278 -8.5992198437452316e-03</internalNodes>
          <leafValues>
            -4.5481440424919128e-01 2.1162258461117744e-02</leafValues></_>
        <_>
          <internalNodes>
            0 -1 378 6.4602802740409970e-04</internalNodes>
          <leafValues>
            -1.0109630227088928e-01 1.0047275573015213e-01</leafValues></_>
        <_>
          <internalNodes>
            0 -1 539 -3.9462670683860779e-03</internalNodes>
          <leafValues>
            -3.3075335621833801e-01 3.0900606885552406e-02</leafValues></_>
        <_>
          <internalNodes>
            0 -1 508 -4.0518334135413170e-03</internalNodes>
          <leafValues>
            1.9384770095348358e-01 -5.4108135402202606e-02</leafValues></_>
        <_>
          <internalNodes>
            0 -1 404 1.9169802544638515e-04</internalNodes>
          <leafValues>
            5.7833336293697357e-02 -1.8568398058414459e-01</leafValues></_>
        <_>
          <internalNodes>
            0 -1 200 9.6570715308189392e-02</internalNodes>
          <leafValues>
            -3.0355939641594887e-02 3.4972676634788513e-01</leafValues></_>
        <_>
          <internalNodes>
            0 -1 8 1.4513570931740105e-04</internalNodes>
          <leafValues>
            -1.0229503363370895e-01 9.4734564423561096e-02</leafValues></_>
        <_>
          <internalNodes>
            0 -1 3 6.6916951909661293e-03</internalNodes>
          <leafValues>
            3.7078693509101868e-02 -3.4183326363563538e-01</leafValues></_>
        <_>
          <internalNodes>
            0 -1 286 -7.9303812235593796e-03</internalNodes>
          <leafValues>
            2.9418885707855225e-01 -3.3093232661485672e-02</leafValues></_>
        <_>
          <internalNodes>
            0 -1 218 -5.6478291749954224e-02</internalNodes>
          <leafValues>
            1.7928105592727661e-01 -5.2618019282817841e-02</leafValues></_>
        <_>
          <internalNodes>
            0 -1 145 -2.4483572691679001e-02</internalNodes>
          <leafValues>
            1.8163198232650757e-01 -5.9436541050672531e-02</leafValues></_>
        <_>
          <internalNodes>
            0 -1 263 -4.3263882398605347e-03</internalNodes>
          <leafValues>
            1.4208136498928070e-01 -7.4100285768508911e-02</leafValues></_>
        <_>
          <internalNodes>
            0 -1 191 -3.1396854668855667e-02</internalNodes>
          <leafValues>
            1.2869834899902344e-01 -9.3141302466392517e-02</leafValues></_>
        <_>
          <internalNodes>
            0 -1 181 -1.2315185740590096e-03</internalNodes>
          <leafValues>
            1.6968645155429840e-01 -6.1586003750562668e-02</leafValues></_>
        <_>
          <internalNodes>
            0 -1 198 1.2204213999211788e-02</internalNodes>
          <leafValues>
            1.3801555149257183e-02 -7.8779941797256470e-01</leafValues></_>
        <_>
          <internalNodes>
            0 -1 476 -5.7172015309333801e-02</internalNodes>
          <leafValues>
            -5.4702383279800415e-01 1.5174981206655502e-02</leafValues></_>
        <_>
          <internalNodes>
            0 -1 348 -5.4519940167665482e-03</internalNodes>
          <leafValues>
            9.5948264002799988e-02 -1.0309088230133057e-01</leafValues></_>
        <_>
          <internalNodes>
            0 -1 395 -3.8316607242450118e-04</internalNodes>
          <leafValues>
            -2.7342090010643005e-01 3.5249970853328705e-02</leafValues></_>
        <_>
          <internalNodes>
            0 -1 403 7.0880856364965439e-03</internalNodes>
          <leafValues>
            -8.6302220821380615e-02 1.3224570453166962e-01</leafValues></_>
        <_>
          <internalNodes>
            0 -1 402 -6.3070305623114109e-04</internalNodes>
          <leafValues>
            -1.9493554532527924e-01 5.5923640727996826e-02</leafValues></_>
        <_>
          <internalNodes>
            0 -1 272 -1.8305373378098011e-03</internalNodes>
          <leafValues>
            2.2982507944107056e-01 -4.3429069221019745e-02</leafValues></_>
        <_>
          <internalNodes>
            0 -1 251 1.4522641431540251e-03</internalNodes>
          <leafValues>
            -7.8444525599479675e-02 1.3073280453681946e-01</leafValues></_>
        <_>
          <internalNodes>
            0 -1 22 -6.5724089741706848e-02</internalNodes>
          <leafValues>
            -4.9271154403686523e-01 2.0055372267961502e-02</leafValues></_>
        <_>
          <internalNodes>
            0 -1 39 2.8981450945138931e-02</internalNodes>
          <leafValues>
            2.0343376323580742e-02 -4.6506643295288086e-01</leafValues></_>
        <_>
          <internalNodes>
            0 -1 377 -5.5133632849901915e-04</internalNodes>
          <leafValues>
            1.2179447710514069e-01 -8.2907855510711670e-02</leafValues></_>
        <_>
          <internalNodes>
            0 -1 171 -4.3058786541223526e-03</internalNodes>
          <leafValues>
            1.3504160940647125e-01 -7.2816215455532074e-02</leafValues></_>
        <_>
          <internalNodes>
